{"learner":{"attributes":{"best_iteration":"24","best_ntree_limit":"25","best_score":"0.9599765602605245","scikit_learn":"{\"use_label_encoder\": null, \"n_estimators\": 100, \"objective\": \"multi:softmax\", \"max_depth\": null, \"max_leaves\": null, \"max_bin\": null, \"grow_policy\": null, \"learning_rate\": null, \"verbosity\": null, \"booster\": null, \"tree_method\": null, \"gamma\": null, \"min_child_weight\": null, \"max_delta_step\": null, \"subsample\": null, \"sampling_method\": null, \"colsample_bytree\": null, \"colsample_bylevel\": null, \"colsample_bynode\": null, \"reg_alpha\": null, \"reg_lambda\": null, \"scale_pos_weight\": null, \"base_score\": null, \"missing\": NaN, \"num_parallel_tree\": null, \"random_state\": null, \"n_jobs\": null, \"monotone_constraints\": null, \"interaction_constraints\": null, \"importance_type\": null, \"gpu_id\": null, \"validate_parameters\": null, \"predictor\": null, \"enable_categorical\": false, \"feature_types\": null, \"max_cat_to_onehot\": null, \"max_cat_threshold\": null, \"eval_metric\": \"aucpr\", \"early_stopping_rounds\": 10, \"callbacks\": null, \"kwargs\": {\"seed\": 7}, \"classes_\": [0, 1, 2], \"n_classes_\": 3, \"evals_result_\": {\"validation_0\": {\"aucpr\": [0.6171758129236632, 0.6663240081989581, 0.6709030316835336, 0.6774054958943833, 0.6754447116330192, 0.7124140479829703, 0.7093865336497663, 0.7088440304771164, 0.9384557879975226, 0.9384557879975226, 0.9398930906637649, 0.941026318508841, 0.9474520680834159, 0.9539632217255308, 0.9497138227148358, 0.9554866655087317, 0.955246342989082, 0.9532443252699464, 0.9559164167629088, 0.9559164167629088, 0.9559164167629088, 0.9559164167629088, 0.9571378095648816, 0.9571378095648816, 0.9599765602605245, 0.9599765602605245, 0.9599765602605245, 0.9599765602605245, 0.9571378095648816, 0.9571378095648816, 0.9571378095648816, 0.9565122946396324, 0.9579022141684619, 0.9579022141684619, 0.9579022141684619]}}, \"_estimator_type\": \"classifier\"}"},"feature_names":["magnitude","age","deciduous","conifers","protected","elevation","precipitation","temperature"],"feature_types":["int","float","float","float","int","int","int","float"],"gradient_booster":{"model":{"gbtree_model_param":{"num_parallel_tree":"1","num_trees":"105","size_leaf_vector":"0"},"tree_info":[0,1,2,0,1,2,0,1,2,0,1,2,0,1,2,0,1,2,0,1,2,0,1,2,0,1,2,0,1,2,0,1,2,0,1,2,0,1,2,0,1,2,0,1,2,0,1,2,0,1,2,0,1,2,0,1,2,0,1,2,0,1,2,0,1,2,0,1,2,0,1,2,0,1,2,0,1,2,0,1,2,0,1,2,0,1,2,0,1,2,0,1,2,0,1,2,0,1,2,0,1,2,0,1,2],"trees":[{"base_weights":[-2.7610624E-1,3.0177513E-1,-5.1111114E-1,7.1900827E-1,-6.31579E-1,-6.353888E-1,7.317073E-1,-6.1224528E-2,1.111111E0,1.0344825E-1,-6.7988676E-1,1.0344827E0,-2.5544848E-8,8.571428E-1,-5.675676E-1,5.454545E-1,1.2631578E0,-7.0381236E-1,-2.5544848E-8,8.571428E-1,-2.5544848E-8,-2.5544848E-8,-7.2948337E-1],"categories":[],"categories_nodes":[],"categories_segments":[],"categories_sizes":[],"default_left":[1,1,1,1,0,1,1,1,1,0,1,0,0,0,0,1,0,1,0,0,0,0,0],"id":0,"left_children":[1,3,5,7,-1,9,11,13,15,-1,17,-1,-1,-1,-1,19,-1,21,-1,-1,-1,-1,-1],"loss_changes":[8.679774E0,7.7666698E0,7.415373E0,4.181106E0,0E0,1.432888E0,1.0092514E0,3.0182018E0,8.506203E-2,0E0,6.3801956E-1,0E0,0E0,0E0,0E0,6.233767E-1,0E0,6.8455887E-1,0E0,0E0,0E0,0E0,0E0],"parents":[2147483647,0,0,1,1,2,2,3,3,5,5,6,6,7,7,8,8,10,10,15,15,17,17],"right_children":[2,4,6,8,-1,10,12,14,16,-1,18,-1,-1,-1,-1,20,-1,22,-1,-1,-1,-1,-1],"split_conditions":[8.865E2,4.42E0,7.755E1,8.705E2,-1.894737E-1,-1.724E3,-1.3215E3,3.145E1,6.4195E1,3.1034475E-2,8.45E1,3.1034482E-1,-7.663455E-9,2.5714284E-1,-1.7027028E-1,-1.2025E3,3.7894738E-1,2.04E2,-7.663455E-9,2.5714284E-1,-7.663455E-9,-7.663455E-9,-2.1884502E-1],"split_indices":[6,7,3,6,0,0,0,2,1,0,2,0,0,0,0,0,0,5,0,0,0,0,0],"split_type":[0,0,0,0,0,0,0,0,0,0,0,0,0,0,0,0,0,0,0,0,0,0,0],"sum_hessian":[6.1777775E1,1.7777777E1,4.3999996E1,1.2444444E1,5.333333E0,4.0444443E1,3.5555553E0,4.444444E0,7.9999995E0,2.222222E0,3.822222E1,2.222222E0,1.3333333E0,1.3333333E0,3.111111E0,2.6666665E0,5.333333E0,3.6888885E1,1.3333333E0,1.3333333E0,1.3333333E0,1.3333333E0,3.5555553E1],"tree_param":{"num_deleted":"0","num_feature":"8","num_nodes":"23","size_leaf_vector":"0"}},{"base_weights":[9.345133E-1,4.0828398E-1,1.1333333E0,-2.4793431E-2,1.2631578E0,1.2466488E0,-1.463415E-1,6.7346936E-1,-4.444445E-1,1.3342776E0,-2.0689659E-1,-5.172414E-1,4.285714E-1,-4.2857146E-1,1.1351352E0,-3.2511625E-8,-6.31579E-1,1.3798219E0,2.3999998E-1,-4.2857146E-1,4.285714E-1,4.137931E-1,1.4290221E0,4.285714E-1,1.4557377E0],"categories":[],"categories_nodes":[],"categories_segments":[],"categories_sizes":[],"default_left":[1,1,1,1,0,1,1,1,1,1,0,0,0,0,0,1,0,1,0,0,0,0,1,0,0],"id":1,"left_children":[1,3,5,7,-1,9,11,13,15,17,-1,-1,-1,-1,-1,19,-1,21,-1,-1,-1,-1,23,-1,-1],"loss_changes":[6.1054E0,6.9833503E0,6.7077446E0,4.2389007E0,0E0,5.5549393E0,1.1930795E0,3.2564814E0,7.4853814E-1,1.6236115E0,0E0,0E0,0E0,0E0,0E0,8.5714287E-1,0E0,1.1883698E0,0E0,0E0,0E0,0E0,3.175354E-1,0E0,0E0],"parents":[2147483647,0,0,1,1,2,2,3,3,5,5,6,6,7,7,8,8,9,9,15,15,17,17,22,22],"right_children":[2,4,6,8,-1,10,12,14,16,18,-1,-1,-1,-1,-1,20,-1,22,-1,-1,-1,-1,24,-1,-1],"split_conditions":[8.865E2,4.42E0,7.755E1,8.705E2,3.7894738E-1,8.105E1,-1.3215E3,3.145E1,6.4195E1,4.295E2,-6.206898E-2,-1.5517244E-1,1.2857142E-1,-1.2857145E-1,3.4054056E-1,-1.2025E3,-1.894737E-1,-1.724E3,7.2E-2,-1.2857145E-1,1.2857142E-1,1.2413793E-1,2.04E2,1.2857142E-1,4.3672132E-1],"split_indices":[6,7,3,6,0,2,0,2,1,5,0,0,0,0,0,0,0,0,0,0,0,0,5,0,0],"split_type":[0,0,0,0,0,0,0,0,0,0,0,0,0,0,0,0,0,0,0,0,0,0,0,0,0],"sum_hessian":[6.1777775E1,1.7777777E1,4.3999996E1,1.2444444E1,5.333333E0,4.0444443E1,3.5555553E0,4.444444E0,7.9999995E0,3.822222E1,2.222222E0,2.222222E0,1.3333333E0,1.3333333E0,3.111111E0,2.6666665E0,5.333333E0,3.6444443E1,1.7777777E0,1.3333333E0,1.3333333E0,2.222222E0,3.422222E1,1.3333333E0,3.2888885E1],"tree_param":{"num_deleted":"0","num_feature":"8","num_nodes":"25","size_leaf_vector":"0"}},{"base_weights":[-6.5840715E-1,-7.052442E-1,8.571428E-1,-7.208873E-1,-2.5544848E-8,-7.371429E-1,-1.2000003E-1],"categories":[],"categories_nodes":[],"categories_segments":[],"categories_sizes":[],"default_left":[1,1,0,1,0,0,0],"id":2,"left_children":[1,3,-1,5,-1,-1,-1],"loss_changes":[5.060705E0,6.778698E-1,0E0,4.9869537E-1,0E0,0E0,0E0],"parents":[2147483647,0,0,1,1,3,3],"right_children":[2,4,-1,6,-1,-1,-1],"split_conditions":[4.435E2,8.42E1,2.5714284E-1,4.295E2,-7.663455E-9,-2.2114289E-1,-3.600001E-2],"split_indices":[5,2,0,5,0,0,0],"split_type":[0,0,0,0,0,0,0],"sum_hessian":[6.1777775E1,6.0444443E1,1.3333333E0,5.9111107E1,1.3333333E0,5.733333E1,1.7777777E0],"tree_param":{"num_deleted":"0","num_feature":"8","num_nodes":"7","size_leaf_vector":"0"}},{"base_weights":[-2.2370963E-1,2.4434012E-1,-4.3608096E-1,5.54874E-1,-5.6318444E-1,4.352048E-1,-5.807603E-1,7.18567E-1,-4.3293422E-1,9.2329115E-1,-4.4517934E-1,-6.04698E-1,2.8363595E-2,6.833628E-3,9.046059E-1,-6.297692E-1,4.4644414E-3,3.5831624E-1,-3.7696838E-1,-8.872532E-3,-6.5643746E-1],"categories":[],"categories_nodes":[],"categories_segments":[],"categories_sizes":[],"default_left":[1,1,1,1,0,1,1,1,0,0,0,1,0,1,0,1,0,0,0,0,0],"id":3,"left_children":[1,3,5,7,-1,9,11,13,-1,-1,-1,15,-1,17,-1,19,-1,-1,-1,-1,-1],"loss_changes":[5.875924E0,5.0160103E0,5.33096E0,2.583084E0,0E0,3.1217952E0,5.2714634E-1,1.6396022E0,0E0,0E0,0E0,5.174732E-1,0E0,6.18457E-1,0E0,5.302286E-1,0E0,0E0,0E0,0E0,0E0],"parents":[2147483647,0,0,1,1,2,2,3,3,5,5,6,6,7,7,11,11,13,13,15,15],"right_children":[2,4,6,8,-1,10,12,14,-1,-1,-1,16,-1,18,-1,20,-1,-1,-1,-1,-1],"split_conditions":[8.865E2,4.42E0,3.225E0,3.79E2,-1.6895534E-1,-1.2975E3,5.825E0,8.45E2,-1.2988028E-1,2.7698734E-1,-1.335538E-1,8.45E1,8.509079E-3,4.015E1,2.713818E-1,1.94E1,1.3393324E-3,1.07494876E-1,-1.1309052E-1,-2.6617597E-3,-1.9693124E-1],"split_indices":[6,7,7,5,0,0,7,6,0,0,0,2,0,2,0,2,0,0,0,0,0],"split_type":[0,0,0,0,0,0,0,0,0,0,0,0,0,0,0,0,0,0,0,0,0],"sum_hessian":[5.704177E1,1.7756752E1,3.928502E1,1.3050896E1,4.705857E0,5.3084555E0,3.3976562E1,1.1429448E1,1.6214478E0,3.383758E0,1.9246975E0,3.269881E1,1.27775E0,2.583277E0,8.84617E0,3.137374E1,1.3250723E0,1.3830734E0,1.2002035E0,1.3469265E0,3.0026814E1],"tree_param":{"num_deleted":"0","num_feature":"8","num_nodes":"21","size_leaf_vector":"0"}},{"base_weights":[6.675212E-1,-1.4442236E-2,7.260487E-1,-5.482399E-1,6.262453E-1,7.569024E-1,-4.104524E-1,3.650535E-1,8.9298934E-1,4.499289E-2,8.9447504E-1,9.3388337E-1,8.418306E-2,5.095701E-1,-3.3343127E-1,9.6465456E-1,-3.7122923E-3,-3.9430723E-1,8.502502E-1,1.9923498E-1,-5.543522E-1,9.8147655E-1,3.0023214E-1],"categories":[],"categories_nodes":[],"categories_segments":[],"categories_sizes":[],"default_left":[1,1,1,0,0,1,0,1,1,1,0,1,0,1,1,1,0,0,0,0,0,0,0],"id":4,"left_children":[1,3,5,-1,-1,7,-1,9,11,13,-1,15,-1,17,19,21,-1,-1,-1,-1,-1,-1,-1],"loss_changes":[2.6979713E0,2.4987311E0,2.485775E0,0E0,0E0,2.9131317E0,0E0,2.8995123E0,1.3897018E0,2.2559366E0,0E0,1.2198639E0,0E0,2.0972326E0,9.5107305E-1,1.6159058E-1,0E0,0E0,0E0,0E0,0E0,0E0,0E0],"parents":[2147483647,0,0,1,1,2,2,5,5,7,7,8,8,9,9,11,11,13,13,14,14,15,15],"right_children":[2,4,6,-1,-1,8,-1,10,12,14,-1,16,-1,18,20,22,-1,-1,-1,-1,-1,-1,-1],"split_conditions":[-1.606E3,3.05E2,4.435E2,-1.6447197E-1,1.878736E-1,8.865E2,-1.2313572E-1,4.42E0,7.785E1,8.705E2,2.6834252E-1,8.25E1,2.5254918E-2,3.145E1,6.4195E1,5.825E0,-1.1136878E-3,-1.18292175E-1,2.5507507E-1,5.9770495E-2,-1.6630568E-1,2.9444298E-1,9.0069644E-2],"split_indices":[0,5,5,0,0,6,0,7,3,6,0,2,0,2,1,7,0,0,0,0,0,0,0],"split_type":[0,0,0,0,0,0,0,0,0,0,0,0,0,0,0,0,0,0,0,0,0,0,0],"sum_hessian":[6.633258E1,5.3023806E0,6.1030205E1,2.9711883E0,2.331192E0,5.974233E1,1.2878764E0,1.6349129E1,4.3393196E1,1.0865438E1,5.483691E0,4.1157585E1,2.235613E0,4.7219357E0,6.143502E0,3.9821804E1,1.3357819E0,1.249474E0,3.4724617E0,1.8298004E0,4.313702E0,3.837308E1,1.4487227E0],"tree_param":{"num_deleted":"0","num_feature":"8","num_nodes":"23","size_leaf_vector":"0"}},{"base_weights":[-5.806043E-1,-6.292895E-1,7.203526E-1,-6.454553E-1,5.126069E-3,-6.616107E-1,-1.18612796E-1],"categories":[],"categories_nodes":[],"categories_segments":[],"categories_sizes":[],"default_left":[1,1,0,1,0,0,0],"id":5,"left_children":[1,3,-1,5,-1,-1,-1],"loss_changes":[3.9399395E0,5.5298424E-1,0E0,3.66436E-1,0E0,0E0,0E0],"parents":[2147483647,0,0,1,1,3,3],"right_children":[2,4,-1,6,-1,-1,-1],"split_conditions":[4.435E2,8.42E1,2.1610579E-1,4.295E2,1.5378207E-3,-1.9848323E-1,-3.558384E-2],"split_indices":[5,2,0,5,0,0,0],"split_type":[0,0,0,0,0,0,0],"sum_hessian":[5.4048546E1,5.259653E1,1.4520122E0,5.1272633E1,1.3238988E0,4.9498962E1,1.7736695E0],"tree_param":{"num_deleted":"0","num_feature":"8","num_nodes":"7","size_leaf_vector":"0"}},{"base_weights":[-1.908802E-1,5.7122476E-2,-5.301189E-1,3.3235726E-1,-4.8300081E-1,-5.6506497E-1,1.2071582E-2,4.6577877E-1,-4.7056752E-1,-5.6365615E-1,1.2730268E-1,-2.5578558E-2,-6.0204405E-1,1.6781789E-1,6.195454E-1,7.4234456E-1,-4.790076E-1,1.7791846E-1,6.7875993E-1],"categories":[],"categories_nodes":[],"categories_segments":[],"categories_sizes":[],"default_left":[1,1,1,1,1,1,0,1,0,0,0,0,0,1,1,0,0,0,0],"id":6,"left_children":[1,3,5,7,9,11,-1,13,-1,-1,-1,-1,-1,15,17,-1,-1,-1,-1],"loss_changes":[4.3929777E0,4.747991E0,4.2360258E-1,2.4725256E0,6.045747E-1,3.9727402E-1,0E0,7.454486E-1,0E0,0E0,0E0,0E0,0E0,3.2104836E0,1.8931246E-1,0E0,0E0,0E0,0E0],"parents":[2147483647,0,0,1,1,2,2,3,3,4,4,5,5,7,7,13,13,14,14],"right_children":[2,4,6,8,10,12,-1,14,-1,-1,-1,-1,-1,16,18,-1,-1,-1,-1],"split_conditions":[9.285E2,4.42E0,8.45E1,3.75E2,9.255E2,2.12E1,3.6214746E-3,4.0699997E0,-1.4117026E-1,-1.6909686E-1,3.8190804E-2,-7.6735676E-3,-1.8061322E-1,3.225E0,8.435E2,2.2270338E-1,-1.4370228E-1,5.3375542E-2,2.0362799E-1],"split_indices":[6,7,2,5,6,2,0,7,0,0,0,0,0,7,6,0,0,0,0],"split_type":[0,0,0,0,0,0,0,0,0,0,0,0,0,0,0,0,0,0,0],"sum_hessian":[5.0855312E1,2.98586E1,2.0996712E1,2.0034254E1,9.824346E0,1.9685709E1,1.3110019E0,1.7539608E1,2.4946477E0,8.745065E0,1.0792805E0,1.3713173E0,1.8314392E1,6.6823277E0,1.085728E1,3.460739E0,3.2215889E0,1.7571261E0,9.100153E0],"tree_param":{"num_deleted":"0","num_feature":"8","num_nodes":"19","size_leaf_vector":"0"}},{"base_weights":[5.342575E-1,5.586186E-1,-3.936018E-1,-1.4587318E-2,6.0862243E-1,-4.912118E-1,4.9652752E-1,3.102407E-1,7.096733E-1,4.935244E-2,7.2011316E-1,7.4978733E-1,4.8482823E-3,-3.2068038E-1,4.5086384E-1,7.8753394E-1,7.2106995E-2,1.304137E-1,-5.233895E-1,7.81878E-1,-3.6492503E-1,8.0263394E-1,2.459502E-1],"categories":[],"categories_nodes":[],"categories_segments":[],"categories_sizes":[],"default_left":[1,1,0,1,1,0,0,1,1,1,0,1,0,1,1,1,0,0,0,0,0,0,0],"id":7,"left_children":[1,3,-1,5,7,-1,-1,9,11,13,-1,15,-1,17,19,21,-1,-1,-1,-1,-1,-1,-1],"loss_changes":[1.6768875E0,1.8210144E0,0E0,1.717587E0,1.5338745E0,0E0,0E0,1.7281682E0,1.2030735E0,1.8015031E0,0E0,9.760189E-1,0E0,6.523822E-1,1.8418964E0,1.1453247E-1,0E0,0E0,0E0,0E0,0E0,0E0,0E0],"parents":[2147483647,0,0,1,1,3,3,4,4,7,7,8,8,9,9,11,11,13,13,14,14,15,15],"right_children":[2,4,-1,6,8,-1,-1,10,12,14,-1,16,-1,18,20,22,-1,-1,-1,-1,-1,-1,-1],"split_conditions":[8.47E1,-1.606E3,-1.1808055E-1,3.05E2,8.865E2,-1.4736354E-1,1.4895827E-1,4.42E0,4.295E2,5.775E1,2.1603395E-1,7.785E1,1.4544848E-3,8.45E2,8.83E2,5.825E0,2.16321E-2,3.912411E-2,-1.5701686E-1,2.3456341E-1,-1.0947751E-1,2.4079019E-1,7.378507E-2],"split_indices":[2,0,0,5,6,0,0,7,5,2,0,3,0,6,6,7,0,0,0,0,0,0,0],"split_type":[0,0,0,0,0,0,0,0,0,0,0,0,0,0,0,0,0,0,0,0,0,0,0],"sum_hessian":[6.3459045E1,6.222331E1,1.2357368E0,5.049373E0,5.717394E1,2.632995E0,2.4163783E0,1.54938965E1,4.1680042E1,1.0152274E1,5.3416224E0,3.9375267E1,2.304773E0,5.3880057E0,4.7642684E0,3.714424E1,2.2310278E0,1.781107E0,3.6068988E0,3.418676E0,1.3455924E0,3.5667767E1,1.4764745E0],"tree_param":{"num_deleted":"0","num_feature":"8","num_nodes":"23","size_leaf_vector":"0"}},{"base_weights":[-5.2417266E-1,-5.7492536E-1,6.0681176E-1,-5.927932E-1,1.6261347E-2,-6.1128587E-1,-8.3344966E-2],"categories":[],"categories_nodes":[],"categories_segments":[],"categories_sizes":[],"default_left":[1,1,0,1,0,0,0],"id":8,"left_children":[1,3,-1,5,-1,-1,-1],"loss_changes":[3.0361252E0,4.8835087E-1,0E0,3.6372948E-1,0E0,0E0,0E0],"parents":[2147483647,0,0,1,1,3,3],"right_children":[2,4,-1,6,-1,-1,-1],"split_conditions":[4.435E2,8.42E1,1.8204354E-1,4.295E2,4.878404E-3,-1.8338576E-1,-2.5003491E-2],"split_indices":[5,2,0,5,0,0,0],"split_type":[0,0,0,0,0,0,0],"sum_hessian":[4.5815823E1,4.4318687E1,1.4971339E0,4.3015873E1,1.3028159E0,4.1316223E1,1.6996496E0],"tree_param":{"num_deleted":"0","num_feature":"8","num_nodes":"7","size_leaf_vector":"0"}},{"base_weights":[-1.6519354E-1,5.8750175E-2,-4.8627427E-1,2.886065E-1,-4.313552E-1,-5.239816E-1,8.551658E-3,4.0145513E-1,-4.2467964E-1,1.5185992E-1,-5.2233267E-1,-3.6922894E-2,-5.63767E-1,2.3161158E-1,6.5001214E-1,-4.2477226E-1,4.4796738E-1,-7.525337E-2,5.321567E-1],"categories":[],"categories_nodes":[],"categories_segments":[],"categories_sizes":[],"default_left":[1,1,1,1,1,1,0,1,0,0,0,0,0,1,0,0,1,0,0],"id":9,"left_children":[1,3,5,7,9,11,-1,13,-1,-1,-1,-1,-1,15,-1,-1,17,-1,-1],"loss_changes":[3.290742E0,3.2359145E0,3.5431242E-1,1.7321149E0,5.684587E-1,3.1708717E-1,0E0,5.782893E-1,0E0,0E0,0E0,0E0,0E0,1.8674322E0,0E0,0E0,4.5274127E-1,0E0,0E0],"parents":[2147483647,0,0,1,1,2,2,3,3,4,4,5,5,7,7,13,13,16,16],"right_children":[2,4,6,8,10,12,-1,14,-1,-1,-1,-1,-1,16,-1,-1,18,-1,-1],"split_conditions":[9.285E2,4.42E0,8.45E1,3.75E2,2.105E2,2.12E1,2.5654975E-3,6.775E1,-1.274039E-1,4.555798E-2,-1.566998E-1,-1.10768685E-2,-1.6913012E-1,4.0699997E0,1.9500364E-1,-1.2743169E-1,3.96E1,-2.2576012E-2,1.5964702E-1],"split_indices":[6,7,2,5,5,2,0,3,0,0,0,0,0,7,0,0,2,0,0],"split_type":[0,0,0,0,0,0,0,0,0,0,0,0,0,0,0,0,0,0,0],"sum_hessian":[4.4368446E1,2.6619328E1,1.7749119E1,1.8400665E1,8.218662E0,1.6437601E1,1.3115184E0,1.6264622E1,2.1360424E0,1.0187454E0,7.1999164E0,1.3869096E0,1.5050691E1,1.0809867E1,5.454756E0,2.441004E0,8.368863E0,1.1746676E0,7.1941953E0],"tree_param":{"num_deleted":"0","num_feature":"8","num_nodes":"19","size_leaf_vector":"0"}},{"base_weights":[4.5130152E-1,4.7415355E-1,-3.6624673E-1,-1.583149E-2,5.1795095E-1,-4.4358698E-1,4.0555817E-1,2.696605E-1,6.026207E-1,5.0626367E-2,6.126948E-1,6.4109766E-1,-4.799336E-3,-2.863267E-1,4.0470123E-1,6.7695665E-1,6.340627E-2,9.83023E-2,-4.7703084E-1,6.8153596E-1,-3.2823953E-1,1.7838876E-1,6.9409096E-1],"categories":[],"categories_nodes":[],"categories_segments":[],"categories_sizes":[],"default_left":[1,1,0,1,1,0,0,1,1,1,0,1,0,1,1,1,0,0,0,0,0,0,0],"id":10,"left_children":[1,3,-1,5,7,-1,-1,9,11,13,-1,15,-1,17,19,21,-1,-1,-1,-1,-1,-1,-1],"loss_changes":[1.2634544E0,1.2353258E0,0E0,1.2005152E0,9.416008E-1,0E0,0E0,1.108445E0,8.994808E-1,1.350171E0,0E0,7.0442486E-1,0E0,4.7867736E-1,1.3313494E0,1.6547775E-1,0E0,0E0,0E0,0E0,0E0,0E0,0E0],"parents":[2147483647,0,0,1,1,3,3,4,4,7,7,8,8,9,9,11,11,13,13,14,14,15,15],"right_children":[2,4,-1,6,8,-1,-1,10,12,14,-1,16,-1,18,20,22,-1,-1,-1,-1,-1,-1,-1],"split_conditions":[8.47E1,-1.606E3,-1.09874025E-1,3.05E2,8.865E2,-1.330761E-1,1.2166745E-1,4.42E0,4.295E2,5.775E1,1.8380845E-1,7.785E1,-1.439801E-3,8.45E2,8.83E2,2.04E2,1.9021884E-2,2.949069E-2,-1.4310926E-1,2.044608E-1,-9.8471865E-2,5.351663E-2,2.0822729E-1],"split_indices":[2,0,0,5,6,0,0,7,5,2,0,3,0,6,6,5,0,0,0,0,0,0,0],"split_type":[0,0,0,0,0,0,0,0,0,0,0,0,0,0,0,0,0,0,0,0,0,0,0],"sum_hessian":[5.7332127E1,5.618177E1,1.1503575E0,4.662164E0,5.1519604E1,2.2874658E0,2.3746986E0,1.4165305E1,3.7354298E1,9.345563E0,4.819742E0,3.5076912E1,2.2773862E0,4.8866E0,4.458963E0,3.286505E1,2.2118628E0,1.780354E0,3.106246E0,3.2874246E0,1.1715386E0,1.4710846E0,3.1393965E1],"tree_param":{"num_deleted":"0","num_feature":"8","num_nodes":"23","size_leaf_vector":"0"}},{"base_weights":[-4.807192E-1,-5.348844E-1,5.373476E-1,-5.5493504E-1,1.6307995E-2,-5.7572025E-1,-8.105278E-2],"categories":[],"categories_nodes":[],"categories_segments":[],"categories_sizes":[],"default_left":[1,1,0,1,0,0,0],"id":11,"left_children":[1,3,-1,5,-1,-1,-1],"loss_changes":[2.4475183E0,4.25642E-1,0E0,3.118658E-1,0E0,0E0,0E0],"parents":[2147483647,0,0,1,1,3,3],"right_children":[2,4,-1,6,-1,-1,-1],"split_conditions":[4.435E2,8.42E1,1.612043E-1,4.295E2,4.8923986E-3,-1.7271608E-1,-2.4315836E-2],"split_indices":[5,2,0,5,0,0,0],"split_type":[0,0,0,0,0,0,0],"sum_hessian":[3.8172146E1,3.6694466E1,1.4776832E0,3.5399933E1,1.2945292E0,3.3706608E1,1.6933256E0],"tree_param":{"num_deleted":"0","num_feature":"8","num_nodes":"7","size_leaf_vector":"0"}},{"base_weights":[-1.4467819E-1,5.9687052E-2,-4.4893673E-1,2.5390187E-1,-3.8455093E-1,-4.902019E-1,6.62859E-3,3.517339E-1,-3.850254E-1,-4.8673362E-1,1.1442798E-1,-4.4426497E-2,-5.3401285E-1,1.9755517E-1,5.678466E-1,-3.8769326E-1,3.7918875E-1,3.9396454E-2,5.3774554E-1],"categories":[],"categories_nodes":[],"categories_segments":[],"categories_sizes":[],"default_left":[1,1,1,1,1,1,0,1,0,0,0,0,0,1,0,0,1,0,0],"id":12,"left_children":[1,3,5,7,9,11,-1,13,-1,-1,-1,-1,-1,15,-1,-1,17,-1,-1],"loss_changes":[2.4695463E0,2.2013505E0,3.0219388E-1,1.2335683E0,4.541551E-1,2.6130843E-1,0E0,4.1287255E-1,0E0,0E0,0E0,0E0,0E0,1.2876465E0,0E0,0E0,4.4723725E-1,0E0,0E0],"parents":[2147483647,0,0,1,1,2,2,3,3,4,4,5,5,7,7,13,13,16,16],"right_children":[2,4,6,8,10,12,-1,14,-1,-1,-1,-1,-1,16,-1,-1,18,-1,-1],"split_conditions":[9.285E2,4.42E0,8.45E1,3.75E2,9.23E2,2.12E1,1.9885772E-3,6.775E1,-1.15507625E-1,-1.4602008E-1,3.4328394E-2,-1.332795E-2,-1.6020386E-1,4.0699997E0,1.7035398E-1,-1.1630798E-1,2.985E2,1.1818937E-2,1.6132367E-1],"split_indices":[6,7,2,5,6,2,0,3,0,0,0,0,0,7,0,0,5,0,0],"split_type":[0,0,0,0,0,0,0,0,0,0,0,0,0,0,0,0,0,0,0],"sum_hessian":[3.8285233E1,2.338306E1,1.4902173E1,1.6568148E1,6.814914E0,1.359473E1,1.3074422E0,1.4757919E1,1.8102276E0,5.6769156E0,1.1379983E0,1.3967612E0,1.2197969E1,9.730287E0,5.0276327E0,2.0358896E0,7.694397E0,2.845299E0,4.849098E0],"tree_param":{"num_deleted":"0","num_feature":"8","num_nodes":"19","size_leaf_vector":"0"}},{"base_weights":[3.9312035E-1,4.156406E-1,-3.4255722E-1,4.6951714E-1,6.364166E-2,2.2635318E-1,5.5455935E-1,-3.973185E-1,2.6671612E-1,-1.9751747E-1,4.6545187E-1,5.983712E-1,-1.0915448E-2,4.8365715E-1,-1.6142617E-1,3.9477572E-1,-4.713278E-1,4.4574693E-2,6.3630295E-1,6.186006E-1,1.2043771E-1,3.0499908E-1,-3.0037326E-1],"categories":[],"categories_nodes":[],"categories_segments":[],"categories_sizes":[],"default_left":[1,1,0,1,1,1,1,0,1,1,1,1,0,0,0,0,0,1,0,0,0,0,0],"id":13,"left_children":[1,3,-1,5,7,9,11,-1,13,15,17,19,-1,-1,-1,-1,-1,21,-1,-1,-1,-1,-1],"loss_changes":[9.904666E-1,9.206314E-1,0E0,7.7010345E-1,8.3704925E-1,1.400527E0,7.8442097E-1,0E0,6.3720536E-1,1.0551316E0,5.8667743E-1,2.0741463E-1,0E0,0E0,0E0,0E0,0E0,4.1006452E-1,0E0,0E0,0E0,0E0,0E0],"parents":[2147483647,0,0,1,1,3,3,4,4,5,5,6,6,8,8,9,9,10,10,11,11,17,17],"right_children":[2,4,-1,6,8,10,12,-1,14,16,18,20,-1,-1,-1,-1,-1,22,-1,-1,-1,-1,-1],"split_conditions":[8.47E1,7.25E1,-1.0276717E-1,8.865E2,-1.3215E3,4.21E0,4.295E2,-1.1919556E-1,3.645E2,8.57E2,5.785E1,5.825E0,-3.2746345E-3,1.4509715E-1,-4.8427854E-2,1.1843272E-1,-1.4139836E-1,3.66E1,1.908909E-1,1.855802E-1,3.6131315E-2,9.149973E-2,-9.011198E-2],"split_indices":[2,3,0,6,0,7,5,0,5,6,2,7,0,0,0,0,0,2,0,0,0,0,0],"split_type":[0,0,0,0,0,0,0,0,0,0,0,0,0,0,0,0,0,0,0,0,0,0,0],"sum_hessian":[5.0189262E1,4.9120625E1,1.0686351E0,4.2310734E1,6.8098907E0,1.1912006E1,3.039873E1,1.7900736E0,5.019817E0,4.358763E0,7.553243E0,2.8158863E1,2.2398667E0,3.2455978E0,1.774219E0,1.238315E0,3.120448E0,2.5449274E0,5.0083156E0,2.6733013E1,1.4258485E0,1.5161188E0,1.0288086E0],"tree_param":{"num_deleted":"0","num_feature":"8","num_nodes":"23","size_leaf_vector":"0"}},{"base_weights":[-4.4426823E-1,-5.02404E-1,4.838959E-1,-5.2531797E-1,1.6873509E-2,-5.49368E-1,-7.702177E-2],"categories":[],"categories_nodes":[],"categories_segments":[],"categories_sizes":[],"default_left":[1,1,0,1,0,0,0],"id":14,"left_children":[1,3,-1,5,-1,-1,-1],"loss_changes":[1.9969311E0,3.7864208E-1,0E0,2.7892494E-1,0E0,0E0,0E0],"parents":[2147483647,0,0,1,1,3,3],"right_children":[2,4,-1,6,-1,-1,-1],"split_conditions":[4.435E2,8.42E1,1.4516878E-1,4.295E2,5.062053E-3,-1.6481042E-1,-2.3106532E-2],"split_indices":[5,2,0,5,0,0,0],"split_type":[0,0,0,0,0,0,0],"sum_hessian":[3.1502485E1,3.0077297E1,1.4251869E0,2.8795038E1,1.2822604E0,2.7114925E1,1.6801116E0],"tree_param":{"num_deleted":"0","num_feature":"8","num_nodes":"7","size_leaf_vector":"0"}},{"base_weights":[-1.2603416E-1,1.1555018E-2,-5.267506E-1,1.9738106E-1,-3.2971603E-1,2.952303E-1,-1.9972268E-1,-4.8601174E-1,-5.3919073E-2,4.0153962E-1,2.334951E-2,-3.6884955E-1,1.3874994E-1,3.944956E-1,-3.8278368E-1,5.014967E-1,1.41139E-1,-2.2463553E-1,3.4354684E-1,-6.8256564E-2,3.758953E-1,-2.916521E-1,-7.865643E-2],"categories":[],"categories_nodes":[],"categories_segments":[],"categories_sizes":[],"default_left":[1,1,0,1,1,1,1,0,1,1,1,0,0,0,0,0,1,1,0,0,0,0,0],"id":15,"left_children":[1,3,-1,5,7,9,11,-1,13,15,17,-1,-1,-1,-1,-1,19,21,-1,-1,-1,-1,-1],"loss_changes":[1.8761332E0,1.7283344E0,0E0,7.430862E-1,3.8850713E-1,4.1057098E-1,2.8457493E-1,0E0,8.300653E-1,1.9948673E-1,4.8578078E-1,0E0,0E0,0E0,0E0,0E0,2.3564747E-1,1.1345372E-2,0E0,0E0,0E0,0E0,0E0],"parents":[2147483647,0,0,1,1,3,3,4,4,5,5,6,6,8,8,9,9,10,10,16,16,17,17],"right_children":[2,4,-1,6,8,10,12,-1,14,16,18,-1,-1,-1,-1,-1,20,22,-1,-1,-1,-1,-1],"split_conditions":[3.81E2,4.435E0,-1.5802519E-1,9.35E2,-7.575E2,5.5449997E1,7.035E1,-1.4580353E-1,5.3695E1,-7.485E2,7.18E1,-1.1065487E-1,4.1624986E-2,1.1834869E-1,-1.14835106E-1,1.5044901E-1,4.295E0,6.159E1,1.0306405E-1,-2.047697E-2,1.1276859E-1,-8.749564E-2,-2.359693E-2],"split_indices":[5,7,0,6,0,2,2,0,1,0,2,0,0,0,0,0,7,1,0,0,0,0,0],"split_type":[0,0,0,0,0,0,0,0,0,0,0,0,0,0,0,0,0,0,0,0,0,0,0],"sum_hessian":[3.2918056E1,2.5227247E1,7.6908107E0,1.6606464E1,8.620783E0,1.352929E1,3.077174E0,5.015986E0,3.6047966E0,9.383364E0,4.145927E0,1.9920474E0,1.0851266E0,1.4407421E0,2.1640544E0,6.1115317E0,3.2718315E0,2.5046122E0,1.6413146E0,2.1041965E0,1.1676351E0,1.0326408E0,1.4719713E0],"tree_param":{"num_deleted":"0","num_feature":"8","num_nodes":"23","size_leaf_vector":"0"}},{"base_weights":[3.4686548E-1,-3.4368273E-2,3.8265955E-1,-3.7516835E-1,2.848443E-1,4.8029622E-1,2.142157E-1,5.142613E-1,-1.383507E-1,3.0850536E-1,-4.620606E-1,3.3704254E-1,6.3086706E-1,-1.4658366E-1,4.041528E-1,-5.1212788E-2,5.307036E-1,2.0186734E-1,-4.2041865E-1,-4.2516757E-2,4.689119E-1,-2.1028173E-1,2.2794595E-1,1.9538708E-1,5.4209226E-1],"categories":[],"categories_nodes":[],"categories_segments":[],"categories_sizes":[],"default_left":[1,1,1,0,0,1,1,1,0,1,0,1,0,1,1,1,0,0,0,0,1,0,0,0,0],"id":16,"left_children":[1,3,5,-1,-1,7,9,11,-1,13,-1,15,-1,17,19,21,-1,-1,-1,-1,23,-1,-1,-1,-1],"loss_changes":[6.1753035E-1,6.202406E-1,5.643554E-1,0E0,0E0,5.939083E-1,1.2069511E0,2.791047E-1,0E0,7.230222E-1,0E0,8.9867365E-1,0E0,4.075959E-1,3.9213252E-1,2.59717E-1,0E0,0E0,0E0,0E0,1.2069178E-1,0E0,0E0,0E0,0E0],"parents":[2147483647,0,0,1,1,2,2,5,5,6,6,7,7,9,9,11,11,13,13,14,14,15,15,20,20],"right_children":[2,4,6,-1,-1,8,10,12,-1,14,-1,16,-1,18,20,22,-1,-1,-1,-1,24,-1,-1,-1,-1],"split_conditions":[-1.606E3,3.05E2,-7.66E2,-1.1255051E-1,8.5453294E-2,8.23E1,4.275E2,3.345E2,-4.150521E-2,2.51E1,-1.3861819E-1,4.3100004E0,1.8926013E-1,3.615E2,-7.335E2,7.6270004E1,1.5921108E-1,6.0560204E-2,-1.261256E-1,-1.2755028E-2,8.86E2,-6.308452E-2,6.838379E-2,5.8616128E-2,1.6262768E-1],"split_indices":[0,5,0,0,0,2,5,5,0,2,0,7,0,5,0,1,0,0,0,0,6,0,0,0,0],"split_type":[0,0,0,0,0,0,0,0,0,0,0,0,0,0,0,0,0,0,0,0,0,0,0,0,0],"sum_hessian":[4.3290066E1,3.7190638E0,3.9571E1,1.713931E0,2.0051327E0,2.3878633E1,1.5692368E1,2.2795824E1,1.0828091E0,1.4249458E1,1.4429094E0,1.059058E1,1.2205244E1,2.3822432E0,1.1867215E1,3.7693233E0,6.821256E0,1.163949E0,1.218294E0,1.5461637E0,1.0321052E1,2.558297E0,1.2110264E0,2.9531307E0,7.3679204E0],"tree_param":{"num_deleted":"0","num_feature":"8","num_nodes":"25","size_leaf_vector":"0"}},{"base_weights":[-4.1165498E-1,-4.740452E-1,4.4116992E-1,-5.3053504E-1,-1.5282513E-1,-4.757128E-1,4.0930817E-1],"categories":[],"categories_nodes":[],"categories_segments":[],"categories_sizes":[],"default_left":[1,1,0,0,1,0,0],"id":17,"left_children":[1,3,-1,-1,5,-1,-1],"loss_changes":[1.6422815E0,3.83101E-1,0E0,0E0,1.1440678E0,0E0,0E0],"parents":[2147483647,0,0,1,1,4,4],"right_children":[2,4,-1,-1,6,-1,-1],"split_conditions":[4.435E2,7.555E1,1.3235098E-1,-1.5916052E-1,5.05E0,-1.4271384E-1,1.2279245E-1],"split_indices":[5,2,0,0,7,0,0],"split_type":[0,0,0,0,0,0,0],"sum_hessian":[2.5934837E1,2.458073E1,1.3541083E0,2.0350296E1,4.2304335E0,2.7846663E0,1.4457674E0],"tree_param":{"num_deleted":"0","num_feature":"8","num_nodes":"7","size_leaf_vector":"0"}},{"base_weights":[-1.05613224E-1,2.0179985E-2,-4.9803835E-1,1.8111338E-1,-2.9197145E-1,3.436181E-1,-2.9248724E-2,-2.81274E-2,-4.5329612E-1,-5.1395882E-2,4.6177253E-1,4.1030678E-1,-2.986141E-1,-3.5409606E-1,3.4564972E-1,5.234809E-1,1.827646E-1,-4.3159366E-1,1.2758145E-1],"categories":[],"categories_nodes":[],"categories_segments":[],"categories_sizes":[],"default_left":[1,1,0,1,1,1,1,1,0,0,1,0,1,0,0,0,0,0,0],"id":18,"left_children":[1,3,-1,5,7,9,11,13,-1,-1,15,-1,17,-1,-1,-1,-1,-1,-1],"loss_changes":[1.4801409E0,1.2340438E0,0E0,5.614931E-1,3.439955E-1,4.5215392E-1,1.0640417E0,6.3976365E-1,0E0,0E0,2.7703047E-2,0E0,3.6730203E-1,0E0,0E0,0E0,0E0,0E0,0E0],"parents":[2147483647,0,0,1,1,3,3,4,4,5,5,6,6,7,7,10,10,12,12],"right_children":[2,4,-1,6,8,10,12,14,-1,-1,16,-1,18,-1,-1,-1,-1,-1,-1],"split_conditions":[3.81E2,4.435E0,-1.4941151E-1,8.88E2,5.3695E1,8.45E2,3.225E0,-7.575E2,-1.3598885E-1,-1.5418765E-2,7.11E1,1.2309204E-1,7.195E1,-1.0622882E-1,1.0369492E-1,1.5704428E-1,5.4829385E-2,-1.294781E-1,3.8274437E-2],"split_indices":[5,7,0,6,1,6,7,0,0,0,2,0,2,0,0,0,0,0,0],"split_type":[0,0,0,0,0,0,0,0,0,0,0,0,0,0,0,0,0,0,0],"sum_hessian":[2.8780373E1,2.2512491E1,6.26788E0,1.5131208E1,7.381284E0,8.179265E0,6.951943E0,3.2463236E0,4.1349607E0,2.0133255E0,6.16594E0,2.4426866E0,4.5092564E0,1.7621865E0,1.484137E0,4.3316774E0,1.8342621E0,3.4272394E0,1.0820168E0],"tree_param":{"num_deleted":"0","num_feature":"8","num_nodes":"19","size_leaf_vector":"0"}},{"base_weights":[3.0474922E-1,3.4825385E-1,3.1444997E-2,3.7373328E-1,-1.4782362E-1,-3.2690573E-1,1.8720457E-1,1.4910124E-1,4.5897233E-1,4.7457692E-1,-9.5948674E-2,5.024929E-1,-1.0918997E-1,5.0919163E-1,-2.9892012E-2,2.1433528E-1,-3.8414443E-1,-3.5234863E-1,3.3561373E-1,3.0630566E-2,5.3910494E-1,-4.41714E-1,-9.300793E-3,1.4317618E-1,5.576482E-1],"categories":[],"categories_nodes":[],"categories_segments":[],"categories_sizes":[],"default_left":[1,1,1,1,0,0,1,1,1,0,1,0,1,1,0,0,0,1,0,0,1,0,0,0,0],"id":19,"left_children":[1,3,5,7,-1,-1,9,11,13,-1,15,-1,17,19,-1,-1,-1,21,-1,-1,23,-1,-1,-1,-1],"loss_changes":[4.4972038E-1,4.7646523E-1,4.1952407E-1,5.4390526E-1,0E0,0E0,4.613865E-1,9.930456E-1,5.7256365E-1,0E0,3.8691056E-1,0E0,8.4935915E-1,2.7899265E-1,0E0,0E0,0E0,1.4483017E-1,0E0,0E0,6.235361E-2,0E0,0E0,0E0,0E0],"parents":[2147483647,0,0,1,1,2,2,3,3,6,6,7,7,8,8,10,10,12,12,13,13,17,17,20,20],"right_children":[2,4,6,8,-1,-1,10,12,14,-1,16,-1,18,20,-1,-1,-1,22,-1,-1,24,-1,-1,-1,-1],"split_conditions":[7.25E1,8.42E1,-1.3215E3,8.865E2,-4.4347085E-2,-9.8071724E-2,-8.24E2,8.65E2,4.295E2,1.4237309E-1,3.615E2,1.5074788E-1,4.3100004E0,2.04E2,-8.9676045E-3,6.430059E-2,-1.1524333E-1,7.25E1,1.0068412E-1,9.18917E-3,3.225E0,-1.3251421E-1,-2.7902378E-3,4.2952858E-2,1.6729446E-1],"split_indices":[3,2,0,6,0,0,0,6,5,0,5,0,7,5,0,0,0,2,0,0,7,0,0,0,0],"split_type":[0,0,0,0,0,0,0,0,0,0,0,0,0,0,0,0,0,0,0,0,0,0,0,0,0],"sum_hessian":[3.77445E1,3.23248E1,5.4197035E0,3.0980219E1,1.3445776E0,1.3091054E0,4.110598E0,9.278258E0,2.170196E1,1.7045783E0,2.40602E0,3.5186386E0,5.75962E0,1.9642569E1,2.0593917E0,1.2820238E0,1.1239961E0,3.858286E0,1.9013343E0,1.274634E0,1.8367935E1,2.8327315E0,1.0255544E0,1.2119511E0,1.7155983E1],"tree_param":{"num_deleted":"0","num_feature":"8","num_nodes":"25","size_leaf_vector":"0"}},{"base_weights":[-3.8516313E-1,-4.7810325E-1,2.0234914E-1,-5.194146E-1,1.2295423E-1,-3.4306207E-1,5.483428E-1],"categories":[],"categories_nodes":[],"categories_segments":[],"categories_sizes":[],"default_left":[1,1,1,0,0,0,0],"id":20,"left_children":[1,3,5,-1,-1,-1,-1],"loss_changes":[1.3247533E0,5.534024E-1,9.0037507E-1,0E0,0E0,0E0,0E0],"parents":[2147483647,0,0,1,1,2,2],"right_children":[2,4,6,-1,-1,-1,-1],"split_conditions":[4.295E2,1.128E3,-7.52E2,-1.558244E-1,3.688627E-2,-1.02918625E-1,1.6450286E-1],"split_indices":[5,6,0,0,0,0,0],"split_type":[0,0,0,0,0,0,0],"sum_hessian":[2.1489578E1,1.8715195E1,2.7743826E0,1.7638699E1,1.0764959E0,1.0801494E0,1.6942331E0],"tree_param":{"num_deleted":"0","num_feature":"8","num_nodes":"7","size_leaf_vector":"0"}},{"base_weights":[-9.056147E-2,2.8778873E-2,-4.736847E-1,1.7414913E-1,-2.574147E-1,2.2991194E-1,-2.741885E-1,-4.2821714E-1,-3.8494996E-3,4.1975868E-1,8.9015886E-2,3.1435174E-1,-3.2131588E-1,2.500423E-1,-3.4857288E-1,-4.277898E-2,3.645042E-1],"categories":[],"categories_nodes":[],"categories_segments":[],"categories_sizes":[],"default_left":[1,1,0,1,1,1,0,0,1,0,1,0,0,1,0,0,0],"id":21,"left_children":[1,3,-1,5,7,9,-1,-1,11,-1,13,-1,-1,15,-1,-1,-1],"loss_changes":[1.1903554E0,9.004777E-1,0E0,4.1892827E-1,3.1586513E-1,3.158368E-1,0E0,0E0,5.010188E-1,0E0,7.1065444E-1,0E0,0E0,2.519067E-1,0E0,0E0,0E0],"parents":[2147483647,0,0,1,1,3,3,4,4,5,5,8,8,10,10,13,13],"right_children":[2,4,-1,6,8,10,-1,-1,12,-1,14,-1,-1,16,-1,-1,-1],"split_conditions":[3.81E2,4.435E0,-1.4210542E-1,1.0255E3,-7.575E2,-1.1825E3,-8.225655E-2,-1.2846515E-1,5.3695E1,1.2592761E-1,8.88E2,9.430552E-2,-9.639477E-2,8.45E2,-1.0457187E-1,-1.2833695E-2,1.0935126E-1],"split_indices":[5,7,0,6,0,0,0,0,1,0,6,0,0,6,0,0,0],"split_type":[0,0,0,0,0,0,0,0,0,0,0,0,0,0,0,0,0],"sum_hessian":[2.4736446E1,1.9566496E1,5.1699505E0,1.3235237E1,6.331259E0,1.22044735E1,1.0307636E0,3.3714514E0,2.9598074E0,4.3559513E0,7.8485227E0,1.4830925E0,1.4767147E0,6.050585E0,1.7979379E0,1.8764446E0,4.17414E0],"tree_param":{"num_deleted":"0","num_feature":"8","num_nodes":"17","size_leaf_vector":"0"}},{"base_weights":[2.7204087E-1,3.158788E-1,1.1122086E-2,3.4390324E-1,-1.5301937E-1,3.200604E-1,-1.4569375E-1,1.4315744E-1,4.2143327E-1,-3.6043084E-1,2.2238232E-1,4.6462756E-1,-9.3761474E-2,4.7433695E-1,-2.4981728E-2,-3.2215706E-1,3.0664644E-1,5.094744E-1,2.6048156E-3,-5.626099E-2,-3.9986756E-1,1.23633556E-1,5.2977383E-1],"categories":[],"categories_nodes":[],"categories_segments":[],"categories_sizes":[],"default_left":[1,1,1,1,0,0,1,1,1,0,0,0,1,1,0,1,0,1,0,0,0,0,0],"id":22,"left_children":[1,3,5,7,-1,-1,9,11,13,-1,-1,-1,15,17,-1,19,-1,21,-1,-1,-1,-1,-1],"loss_changes":[3.7808895E-1,4.2748213E-1,3.2934034E-1,3.634076E-1,0E0,0E0,4.4041002E-1,7.366267E-1,4.635496E-1,0E0,0E0,0E0,6.5398365E-1,2.8293657E-1,0E0,6.745911E-2,0E0,5.9472084E-2,0E0,0E0,0E0,0E0,0E0],"parents":[2147483647,0,0,1,1,2,2,3,3,6,6,7,7,8,8,12,12,13,13,15,15,17,17],"right_children":[2,4,6,8,-1,-1,10,12,14,-1,-1,-1,16,18,-1,20,-1,22,-1,-1,-1,-1,-1],"split_conditions":[7.25E1,8.42E1,2.85E2,8.865E2,-4.5905814E-2,9.601813E-2,7.9350006E1,8.65E2,4.295E2,-1.08129255E-1,6.67147E-2,1.3938828E-1,4.3100004E0,5.825E0,-7.4945185E-3,8.775E2,9.1993935E-2,3.225E0,7.814447E-4,-1.6878298E-2,-1.1996027E-1,3.7090067E-2,1.5893215E-1],"split_indices":[3,2,5,6,0,0,3,6,5,0,0,0,7,7,0,6,0,7,0,0,0,0,0],"split_type":[0,0,0,0,0,0,0,0,0,0,0,0,0,0,0,0,0,0,0,0,0,0,0],"sum_hessian":[3.2362232E1,2.7526722E1,4.83551E0,2.6225864E1,1.3008573E0,1.2775837E0,3.557926E0,8.099805E0,1.812606E1,2.2601285E0,1.2977974E0,3.0288708E0,5.070934E0,1.6149652E1,1.9764078E0,3.3535004E0,1.7174333E0,1.4955657E1,1.1939952E0,1.14833E0,2.2051704E0,1.1018962E0,1.3853761E1],"tree_param":{"num_deleted":"0","num_feature":"8","num_nodes":"23","size_leaf_vector":"0"}},{"base_weights":[-3.5957444E-1,-4.563452E-1,1.7050456E-1,-5.0409377E-1,1.2452353E-1,-3.3091143E-1,4.9994597E-1],"categories":[],"categories_nodes":[],"categories_segments":[],"categories_sizes":[],"default_left":[1,1,1,0,0,0,0],"id":23,"left_children":[1,3,5,-1,-1,-1,-1],"loss_changes":[1.0400593E0,5.1028156E-1,7.640599E-1,0E0,0E0,0E0,0E0],"parents":[2147483647,0,0,1,1,2,2],"right_children":[2,4,6,-1,-1,-1,-1],"split_conditions":[4.295E2,1.128E3,-7.52E2,-1.5122813E-1,3.735706E-2,-9.9273436E-2,1.499838E-1],"split_indices":[5,6,0,0,0,0,0],"split_type":[0,0,0,0,0,0,0],"sum_hessian":[1.775873E1,1.5134829E1,2.6239016E0,1.4107349E1,1.027479E0,1.0386281E0,1.5852735E0],"tree_param":{"num_deleted":"0","num_feature":"8","num_nodes":"7","size_leaf_vector":"0"}},{"base_weights":[-8.090229E-2,3.1399228E-2,-4.516419E-1,1.6072E-1,-2.2717565E-1,-5.1312596E-2,2.7163798E-1,-4.0372884E-1,1.639949E-2,3.4157705E-1,-3.7952664E-1,-2.9927257E-3,4.1970602E-1,2.876298E-1,-2.9208556E-1,2.578115E-1,-3.6601186E-1,4.7536945E-1,9.549959E-2],"categories":[],"categories_nodes":[],"categories_segments":[],"categories_sizes":[],"default_left":[1,1,0,1,1,1,1,0,1,0,0,1,1,0,0,0,0,0,0],"id":24,"left_children":[1,3,-1,5,7,9,11,-1,13,-1,-1,15,17,-1,-1,-1,-1,-1,-1],"loss_changes":[9.5050323E-1,6.4495564E-1,0E0,3.129728E-1,2.853114E-1,8.012327E-1,3.4718102E-1,0E0,3.9228296E-1,0E0,0E0,4.7049648E-1,5.4472804E-2,0E0,0E0,0E0,0E0,0E0,0E0],"parents":[2147483647,0,0,1,1,3,3,4,4,5,5,6,6,8,8,11,11,12,12],"right_children":[2,4,-1,6,8,10,12,-1,14,-1,-1,16,18,-1,-1,-1,-1,-1,-1],"split_conditions":[3.81E2,4.435E0,-1.3549258E-1,4.0699997E0,-7.575E2,3.225E0,2.985E2,-1.2111866E-1,5.3695E1,1.0247312E-1,-1.13858E-1,2.905E2,8.88E2,8.6288944E-2,-8.762567E-2,7.734345E-2,-1.09803565E-1,1.4261085E-1,2.8649878E-2],"split_indices":[5,7,0,7,0,7,5,0,1,0,0,5,6,0,0,0,0,0,0],"split_type":[0,0,0,0,0,0,0,0,0,0,0,0,0,0,0,0,0,0,0],"sum_hessian":[2.1489025E1,1.7195581E1,4.293443E0,1.1715007E1,5.480575E0,4.2081056E0,7.5069013E0,2.7962365E0,2.6843386E0,1.8968096E0,2.311296E0,2.9728205E0,4.5340805E0,1.4643972E0,1.2199414E0,1.8986119E0,1.0742085E0,3.4717553E0,1.0623255E0],"tree_param":{"num_deleted":"0","num_feature":"8","num_nodes":"19","size_leaf_vector":"0"}},{"base_weights":[2.4545927E-1,2.6881608E-1,-1.5215603E-1,3.5898158E-1,9.952538E-2,6.0934443E-3,4.5361578E-1,2.4202202E-1,-1.9213751E-1,-3.1875563E-1,2.1853763E-1,2.3153614E-1,5.3193223E-1,-1.3255264E-1,3.24272E-1,1.0085259E-1,-4.3930542E-1,3.2390782E-1,1.017273E-2,-9.5050745E-2,3.8904157E-1,1.1640863E-1,4.2386702E-1,3.5942498E-1,-2.0374422E-1],"categories":[],"categories_nodes":[],"categories_segments":[],"categories_sizes":[],"default_left":[1,1,0,1,1,1,1,1,1,0,1,1,0,0,1,0,0,0,0,0,0,1,0,0,0],"id":25,"left_children":[1,3,-1,5,7,9,11,13,15,-1,17,19,-1,-1,21,-1,-1,-1,-1,-1,-1,23,-1,-1,-1],"loss_changes":[3.0959177E-1,3.8690662E-1,0E0,5.877428E-1,5.0390697E-1,3.976595E-1,1.1910868E-1,2.8440073E-1,3.462612E-1,0E0,7.28201E-2,3.1487158E-1,0E0,0E0,8.967966E-2,0E0,0E0,0E0,0E0,0E0,0E0,3.497332E-1,0E0,0E0,0E0],"parents":[2147483647,0,0,1,1,3,3,4,4,5,5,6,6,7,7,8,8,10,10,11,11,14,14,21,21],"right_children":[2,4,-1,6,8,10,12,14,16,-1,18,20,-1,-1,22,-1,-1,-1,-1,-1,-1,24,-1,-1,-1],"split_conditions":[8.42E1,-7.66E2,-4.564681E-2,-1.3715E3,3.71E2,3.225E0,8.87E2,-7.325E2,4.6099997E0,-9.562669E-2,4.09E0,5.775E1,1.5957968E-1,-3.9765794E-2,8.86E2,3.0255778E-2,-1.3179164E-1,9.717235E-2,3.0518193E-3,-2.8515225E-2,1.1671247E-1,8.725E2,1.2716012E-1,1.078275E-1,-6.1123267E-2],"split_indices":[2,0,0,0,5,7,6,0,7,0,7,2,0,0,6,0,0,0,0,0,0,6,0,0,0],"split_type":[0,0,0,0,0,0,0,0,0,0,0,0,0,0,0,0,0,0,0,0,0,0,0,0,0],"sum_hessian":[2.7931767E1,2.6687986E1,1.2437817E0,1.668234E1,1.0005646E1,3.752768E0,1.2929572E1,6.8360047E0,3.1696415E0,1.2859688E0,2.4667993E0,4.4023566E0,8.527215E0,1.1206897E0,5.715315E0,1.7212539E0,1.4483877E0,1.2700253E0,1.196774E0,1.5613751E0,2.8409815E0,2.553908E0,3.1614068E0,1.3821225E0,1.1717856E0],"tree_param":{"num_deleted":"0","num_feature":"8","num_nodes":"25","size_leaf_vector":"0"}},{"base_weights":[-3.3505756E-1,-4.3482953E-1,1.436412E-1,-4.892642E-1,1.0018381E-1,-1.8572104E-1,4.3397284E-1],"categories":[],"categories_nodes":[],"categories_segments":[],"categories_sizes":[],"default_left":[1,1,1,0,0,0,0],"id":26,"left_children":[1,3,5,-1,-1,-1,-1],"loss_changes":[8.154036E-1,4.361863E-1,4.1248587E-1,0E0,0E0,0E0,0E0],"parents":[2147483647,0,0,1,1,2,2],"right_children":[2,4,6,-1,-1,-1,-1],"split_conditions":[4.295E2,1.1135E3,-6.66E2,-1.4677927E-1,3.0055143E-2,-5.5716313E-2,1.3019186E-1],"split_indices":[5,6,0,0,0,0,0],"split_type":[0,0,0,0,0,0,0],"sum_hessian":[1.4764924E1,1.2294174E1,2.4707499E0,1.1236439E1,1.0577354E0,1.3263766E0,1.1443734E0],"tree_param":{"num_deleted":"0","num_feature":"8","num_nodes":"7","size_leaf_vector":"0"}},{"base_weights":[-6.864547E-2,3.721995E-2,-4.2819852E-1,1.5604511E-1,-2.0215665E-1,-4.5861427E-2,2.5388446E-1,2.8447138E-2,-3.764999E-1,3.0887964E-1,-3.5181463E-1,-5.842164E-3,3.9435884E-1,-3.81604E-2,9.301435E-2,-2.224924E-1,1.7606045E-1,4.4795346E-1,9.217145E-2],"categories":[],"categories_nodes":[],"categories_segments":[],"categories_sizes":[],"default_left":[1,1,0,1,1,1,1,1,0,0,0,1,1,0,0,0,0,0,0],"id":27,"left_children":[1,3,-1,5,7,9,11,13,-1,-1,-1,15,17,-1,-1,-1,-1,-1,-1],"loss_changes":[7.6701987E-1,4.9130553E-1,0E0,2.3617479E-1,2.4379717E-1,6.032578E-1,2.8722006E-1,1.8282676E-2,0E0,0E0,0E0,1.8603012E-1,4.102826E-2,0E0,0E0,0E0,0E0,0E0,0E0],"parents":[2147483647,0,0,1,1,3,3,4,4,5,5,6,6,7,7,11,11,12,12],"right_children":[2,4,-1,6,8,10,12,14,-1,-1,-1,16,18,-1,-1,-1,-1,-1,-1],"split_conditions":[3.81E2,4.435E0,-1.2845956E-1,4.0699997E0,5.3695E1,3.225E0,2.985E2,5.825E0,-1.12949975E-1,9.26639E-2,-1.05544396E-1,4.875E1,8.88E2,-1.144812E-2,2.7904307E-2,-6.6747725E-2,5.281814E-2,1.3438605E-1,2.7651437E-2],"split_indices":[5,7,0,7,1,7,5,7,0,0,0,3,6,0,0,0,0,0,0],"split_type":[0,0,0,0,0,0,0,0,0,0,0,0,0,0,0,0,0,0,0],"sum_hessian":[1.873197E1,1.5163709E1,3.5682616E0,1.0366137E1,4.797572E0,3.5569928E0,6.809144E0,2.4257998E0,2.3717723E0,1.642737E0,1.9142557E0,2.7264864E0,4.082658E0,1.3953444E0,1.0304555E0,1.1425467E0,1.5839397E0,3.0579448E0,1.024713E0],"tree_param":{"num_deleted":"0","num_feature":"8","num_nodes":"19","size_leaf_vector":"0"}},{"base_weights":[2.1844953E-1,2.4341643E-1,-1.5447241E-1,2.931626E-1,-1.5533927E-2,3.6749345E-1,1.226776E-1,2.2022822E-1,-1.3598324E-1,1.2933993E-1,4.696803E-1,2.2988002E-1,-2.848728E-1,-3.128824E-1,1.6367999E-1,-1.7193715E-1,2.8600812E-1,4.9736622E-1,1.3302147E-1,-8.633345E-2,3.1099978E-1,3.778413E-1,1.7133541E-2,6.7453184E-3,4.116492E-1],"categories":[],"categories_nodes":[],"categories_segments":[],"categories_sizes":[],"default_left":[1,1,0,1,1,1,1,0,1,1,1,1,0,0,0,0,1,0,0,0,1,0,0,0,0],"id":28,"left_children":[1,3,-1,5,7,9,11,-1,13,15,17,19,-1,-1,-1,-1,21,-1,-1,-1,23,-1,-1,-1,-1],"loss_changes":[2.7310884E-1,3.1494486E-1,0E0,2.1169186E-1,1.6718116E-1,2.704532E-1,3.9986005E-1,0E0,2.5354025E-1,3.0718568E-1,1.906085E-2,1.9647577E-1,0E0,0E0,0E0,0E0,9.159252E-2,0E0,0E0,0E0,1.6503787E-1,0E0,0E0,0E0,0E0],"parents":[2147483647,0,0,1,1,3,3,4,4,5,5,6,6,8,8,9,9,10,10,11,11,16,16,20,20],"right_children":[2,4,-1,6,8,10,12,-1,14,16,18,20,-1,-1,-1,-1,22,-1,-1,-1,24,-1,-1,-1,-1],"split_conditions":[8.42E1,7.25E1,-4.6341725E-2,-7.45E2,2.875E2,8.87E2,4.155E2,6.606847E-2,7.9350006E1,5.97E1,6.515E1,-7.195E2,-8.546184E-2,-9.3864724E-2,4.9103998E-2,-5.1581148E-2,8.78E2,1.4920987E-1,3.9906442E-2,-2.5900038E-2,8.86E2,1.13352396E-1,5.1400624E-3,2.0235956E-3,1.2349477E-1],"split_indices":[2,3,0,0,5,6,5,0,3,2,3,0,0,0,0,0,6,0,0,0,6,0,0,0,0],"split_type":[0,0,0,0,0,0,0,0,0,0,0,0,0,0,0,0,0,0,0,0,0,0,0,0,0],"sum_hessian":[2.4294275E1,2.309533E1,1.1989458E0,1.9262709E1,3.832621E0,1.2609457E1,6.6532516E0,1.0158507E0,2.8167703E0,4.466257E0,8.1432E0,5.612802E0,1.0404495E0,1.7434512E0,1.0733191E0,1.4946141E0,2.9716432E0,7.0833263E0,1.0598732E0,1.1327909E0,4.480011E0,1.9129963E0,1.0586469E0,1.3788587E0,3.1011524E0],"tree_param":{"num_deleted":"0","num_feature":"8","num_nodes":"25","size_leaf_vector":"0"}},{"base_weights":[-3.118532E-1,-4.1406977E-1,1.3128497E-1,-4.753762E-1,9.942976E-2,-1.639074E-1,3.8632348E-1],"categories":[],"categories_nodes":[],"categories_segments":[],"categories_sizes":[],"default_left":[1,1,1,0,0,0,0],"id":29,"left_children":[1,3,5,-1,-1,-1,-1],"loss_changes":[6.601924E-1,3.969798E-1,3.0921447E-1,0E0,0E0,0E0,0E0],"parents":[2147483647,0,0,1,1,2,2],"right_children":[2,4,6,-1,-1,-1,-1],"split_conditions":[4.295E2,1.1135E3,-6.66E2,-1.4261286E-1,2.9828928E-2,-4.917222E-2,1.1589705E-1],"split_indices":[5,6,0,0,0,0,0],"split_type":[0,0,0,0,0,0,0],"sum_hessian":[1.2374921E1,1.0108774E1,2.266146E0,9.096938E0,1.0118362E0,1.2160089E0,1.050137E0],"tree_param":{"num_deleted":"0","num_feature":"8","num_nodes":"7","size_leaf_vector":"0"}},{"base_weights":[-5.8551922E-2,4.0008977E-2,-4.0589404E-1,1.4895858E-1,-1.7811996E-1,3.0869377E-1,2.6210684E-2,-3.5879067E-1,4.3965653E-2,1.8493257E-1,-3.1865788E-1,-7.299552E-3,7.699451E-2,-4.5184776E-2,2.781934E-1,6.316881E-3,3.6807975E-1],"categories":[],"categories_nodes":[],"categories_segments":[],"categories_sizes":[],"default_left":[1,1,0,1,1,0,1,0,1,1,0,0,0,0,1,0,0],"id":30,"left_children":[1,3,-1,5,7,-1,9,-1,11,13,-1,-1,-1,-1,15,-1,-1],"loss_changes":[6.176008E-1,3.733494E-1,0E0,1.9341241E-1,2.290967E-1,0E0,4.3684945E-1,0E0,6.1086365E-3,1.2761901E-1,0E0,0E0,0E0,0E0,9.431568E-2,0E0,0E0],"parents":[2147483647,0,0,1,1,3,3,4,4,6,6,8,8,9,9,14,14],"right_children":[2,4,-1,6,8,-1,10,-1,12,14,-1,-1,-1,-1,16,-1,-1],"split_conditions":[3.81E2,4.435E0,-1.21768214E-1,-1.1825E3,-7.575E2,9.260813E-2,8.88E2,-1.07637204E-1,5.3500004E0,8.45E2,-9.5597364E-2,-2.1898658E-3,2.3098353E-2,-1.3555434E-2,6.4195E1,1.8950644E-3,1.1042393E-1],"split_indices":[5,7,0,0,0,0,6,0,7,6,0,0,0,0,1,0,0],"split_type":[0,0,0,0,0,0,0,0,0,0,0,0,0,0,0,0,0],"sum_hessian":[1.6566025E1,1.3593563E1,2.9724605E0,9.277038E0,4.316526E0,3.3729131E0,5.9041243E0,2.0407703E0,2.2757554E0,4.360851E0,1.5432734E0,1.1969397E0,1.0788158E0,1.4063185E0,2.9545324E0,1.0000343E0,1.954498E0],"tree_param":{"num_deleted":"0","num_feature":"8","num_nodes":"17","size_leaf_vector":"0"}},{"base_weights":[1.9402222E-1,2.2038579E-1,-1.5548052E-1,3.0790067E-1,6.67419E-2,-2.5311185E-2,4.0159345E-1,2.0254788E-1,-1.9420177E-1,-2.8029814E-1,1.678718E-1,1.8876085E-1,4.8240322E-1,-1.2972619E-1,2.893819E-1,7.524564E-2,-3.8123778E-1,-8.2204305E-2,3.2658505E-1,3.545229E-1,5.6305196E-2],"categories":[],"categories_nodes":[],"categories_segments":[],"categories_sizes":[],"default_left":[1,1,0,1,1,1,1,1,1,0,0,1,0,0,1,0,0,0,0,0,0],"id":31,"left_children":[1,3,-1,5,7,9,11,13,15,-1,-1,17,-1,-1,19,-1,-1,-1,-1,-1,-1],"loss_changes":[2.4025995E-1,2.645334E-1,0E0,4.23234E-1,3.57239E-1,2.3643304E-1,8.757949E-2,2.2189736E-1,2.0916511E-1,0E0,0E0,1.9494607E-1,0E0,0E0,6.1650664E-2,0E0,0E0,0E0,0E0,0E0,0E0],"parents":[2147483647,0,0,1,1,3,3,4,4,5,5,6,6,7,7,8,8,11,11,14,14],"right_children":[2,4,-1,6,8,10,12,14,16,-1,-1,18,-1,-1,20,-1,-1,-1,-1,-1,-1],"split_conditions":[8.42E1,-7.66E2,-4.664416E-2,-1.3715E3,3.71E2,3.225E0,8.87E2,-7.325E2,4.6099997E0,-8.408944E-2,5.0361544E-2,5.775E1,1.4472097E-1,-3.891786E-2,6.841E1,2.2573693E-2,-1.1437134E-1,-2.4661293E-2,9.797552E-2,1.0635688E-1,1.689156E-2],"split_indices":[2,0,0,0,5,7,6,0,7,0,0,2,0,0,1,0,0,0,0,0,0],"split_type":[0,0,0,0,0,0,0,0,0,0,0,0,0,0,0,0,0,0,0,0,0],"sum_hessian":[2.1356323E1,2.0201893E1,1.1544313E0,1.2231114E1,7.970777E0,2.8445432E0,9.386572E0,5.389594E0,2.581183E0,1.0317564E0,1.8127868E0,3.5011888E0,5.8853827E0,1.0143158E0,4.3752785E0,1.3024888E0,1.2786942E0,1.3164933E0,2.1846955E0,3.012327E0,1.3629514E0],"tree_param":{"num_deleted":"0","num_feature":"8","num_nodes":"21","size_leaf_vector":"0"}},{"base_weights":[-2.8849858E-1,-4.5290005E-1,1.2895623E-2,-2.7751592E-1,3.5173678E-1],"categories":[],"categories_nodes":[],"categories_segments":[],"categories_sizes":[],"default_left":[1,0,1,0,0],"id":32,"left_children":[1,-1,3,-1,-1],"loss_changes":[5.741784E-1,0E0,5.9166133E-1,0E0,0E0],"parents":[2147483647,0,0,2,2],"right_children":[2,-1,4,-1,-1],"split_conditions":[3.87E2,-1.3587002E-1,4.9700003E0,-8.325478E-2,1.0552104E-1],"split_indices":[5,0,7,0,0],"split_type":[0,0,0,0,0],"sum_hessian":[1.047007E1,6.4494214E0,4.0206485E0,2.2625036E0,1.7581451E0],"tree_param":{"num_deleted":"0","num_feature":"8","num_nodes":"5","size_leaf_vector":"0"}},{"base_weights":[-4.57321E-2,4.5250136E-2,-3.8216677E-1,1.4334705E-1,-1.5523307E-1,-4.7393925E-2,2.2847973E-1,5.609983E-2,-3.362735E-1,2.681442E-1,-3.166529E-1,-2.1984052E-2,3.677538E-1,8.531456E-2,8.929605E-4,-1.9948803E-1,1.386969E-1],"categories":[],"categories_nodes":[],"categories_segments":[],"categories_sizes":[],"default_left":[1,1,0,1,1,1,1,1,0,0,0,1,0,0,0,0,0],"id":33,"left_children":[1,3,-1,5,7,9,11,13,-1,-1,-1,15,-1,-1,-1,-1,-1],"loss_changes":[5.0394E-1,2.8595242E-1,0E0,1.6546658E-1,2.0577765E-1,4.0495428E-1,2.4375853E-1,4.9415976E-3,0E0,0E0,0E0,1.23440936E-1,0E0,0E0,0E0,0E0,0E0],"parents":[2147483647,0,0,1,1,3,3,4,4,5,5,6,6,7,7,11,11],"right_children":[2,4,-1,6,8,10,12,14,-1,-1,-1,16,-1,-1,-1,-1,-1],"split_conditions":[3.81E2,4.435E0,-1.1465003E-1,4.0699997E0,5.3695E1,3.225E0,2.985E2,4.1184998E1,-1.0088205E-1,8.044326E-2,-9.499587E-2,4.875E1,1.1032615E-1,2.5594369E-2,2.6788816E-4,-5.9846412E-2,4.160907E-2],"split_indices":[5,7,0,7,1,7,5,1,0,0,0,3,0,0,0,0,0],"split_type":[0,0,0,0,0,0,0,0,0,0,0,0,0,0,0,0,0],"sum_hessian":[1.4898517E1,1.2408405E1,2.4901116E0,8.523048E0,3.8853564E0,2.7669501E0,5.7560987E0,2.11112E0,1.7742363E0,1.2758971E0,1.491053E0,2.3579063E0,3.3981922E0,1.0239161E0,1.0872039E0,1.005555E0,1.3523513E0],"tree_param":{"num_deleted":"0","num_feature":"8","num_nodes":"17","size_leaf_vector":"0"}},{"base_weights":[1.7017947E-1,1.9600572E-1,-1.4483653E-1,2.86102E-1,4.695221E-2,9.691722E-2,4.612818E-1,1.7919475E-1,-1.9462787E-1,-1.6807637E-1,3.5367027E-1,4.3074917E-2,3.3468428E-1,5.2529313E-2,-3.5747826E-1,-2.2018838E-1,-9.007965E-3,1.3973063E-1,-9.245226E-2],"categories":[],"categories_nodes":[],"categories_segments":[],"categories_sizes":[],"default_left":[1,1,0,1,1,1,0,1,1,1,0,1,0,0,0,0,0,0,0],"id":34,"left_children":[1,3,-1,5,7,9,-1,11,13,15,-1,17,-1,-1,-1,-1,-1,-1,-1],"loss_changes":[1.9174814E-1,2.4149096E-1,0E0,3.4089386E-1,3.0156654E-1,5.261762E-1,0E0,1.1078377E-1,1.569339E-1,3.161861E-2,0E0,6.927057E-2,0E0,0E0,0E0,0E0,0E0,0E0,0E0],"parents":[2147483647,0,0,1,1,3,3,4,4,5,5,7,7,8,8,9,9,11,11],"right_children":[2,4,-1,6,8,10,-1,12,14,16,-1,18,-1,-1,-1,-1,-1,-1,-1],"split_conditions":[8.42E1,-7.66E2,-4.345096E-2,3.345E2,3.71E2,4.3100004E0,1.3838455E-1,-5.63E2,4.6099997E0,5.97E1,1.0610109E-1,5.929E1,1.0040529E-1,1.5758794E-2,-1.07243486E-1,-6.605652E-2,-2.7023896E-3,4.191919E-2,-2.7735678E-2],"split_indices":[2,0,0,5,5,7,0,0,7,2,0,1,0,0,0,0,0,0,0],"split_type":[0,0,0,0,0,0,0,0,0,0,0,0,0,0,0,0,0,0,0],"sum_hessian":[1.9079378E1,1.7982864E1,1.096514E0,1.0635011E1,7.347853E0,5.85989E0,4.775121E0,4.91538E0,2.4324732E0,3.05363E0,2.8062596E0,3.3018644E0,1.6135156E0,1.2352219E0,1.1972513E0,2.0106795E0,1.0429507E0,1.909223E0,1.3926414E0],"tree_param":{"num_deleted":"0","num_feature":"8","num_nodes":"19","size_leaf_vector":"0"}},{"base_weights":[-2.698502E-1,-4.371801E-1,1.4565583E-2,-3.1925642E-1,2.6016396E-1,3.4211725E-2,3.5580757E-1],"categories":[],"categories_nodes":[],"categories_segments":[],"categories_sizes":[],"default_left":[1,0,1,0,1,0,0],"id":35,"left_children":[1,-1,3,-1,5,-1,-1],"loss_changes":[4.8078567E-1,0E0,4.651305E-1,0E0,5.7757378E-2,0E0,0E0],"parents":[2147483647,0,0,2,2,4,4],"right_children":[2,-1,4,-1,6,-1,-1],"split_conditions":[3.87E2,-1.3115403E-1,4.6099997E0,-9.577693E-2,-7.96E2,1.02635175E-2,1.0674228E-1],"split_indices":[5,0,7,0,0,0,0],"split_type":[0,0,0,0,0,0,0],"sum_hessian":[8.96859E0,5.3083935E0,3.6601958E0,1.4243201E0,2.2358758E0,1.0687408E0,1.167135E0],"tree_param":{"num_deleted":"0","num_feature":"8","num_nodes":"7","size_leaf_vector":"0"}},{"base_weights":[-3.7796874E-2,4.5722347E-2,-3.5900185E-1,1.3055794E-1,-1.299571E-1,2.4057465E-2,2.9935732E-1,-3.130119E-1,6.278968E-2,-2.8443286E-1,1.4609008E-1,8.379415E-2,1.0190038E-2,-8.452801E-2,3.229626E-1,-2.0831177E-1,7.413839E-2],"categories":[],"categories_nodes":[],"categories_segments":[],"categories_sizes":[],"default_left":[1,1,0,1,1,1,0,0,1,0,1,0,0,1,0,0,0],"id":36,"left_children":[1,3,-1,5,7,9,-1,-1,11,-1,13,-1,-1,15,-1,-1,-1],"loss_changes":[4.0262467E-1,2.0047244E-1,0E0,1.5103199E-1,1.7880595E-1,2.8565824E-1,0E0,0E0,2.4938742E-3,0E0,2.437697E-1,0E0,0E0,7.625154E-2,0E0,0E0,0E0],"parents":[2147483647,0,0,1,1,3,3,4,4,5,5,8,8,10,10,13,13],"right_children":[2,4,-1,6,8,10,-1,-1,12,-1,14,-1,-1,16,-1,-1,-1],"split_conditions":[3.81E2,4.435E0,-1.0770056E-1,6.775E1,-7.575E2,4.0699997E0,8.98072E-2,-9.390358E-2,2.845E2,-8.532986E-2,6.6005E1,2.5138246E-2,3.0570116E-3,3.01E2,9.688879E-2,-6.2493533E-2,2.2241518E-2],"split_indices":[5,7,0,3,0,7,0,0,5,0,1,0,0,5,0,0,0],"split_type":[0,0,0,0,0,0,0,0,0,0,0,0,0,0,0,0,0],"sum_hessian":[1.33964405E1,1.1312608E1,2.083833E0,7.801907E0,3.5107005E0,5.4842525E0,2.3176546E0,1.4805979E0,2.0301025E0,1.1773064E0,4.3069463E0,1.0269557E0,1.0031468E0,2.0960605E0,2.2108858E0,1.0016952E0,1.0943652E0],"tree_param":{"num_deleted":"0","num_feature":"8","num_nodes":"17","size_leaf_vector":"0"}},{"base_weights":[1.5187448E-1,1.9441845E-1,-6.0951315E-2,2.2871856E-1,-1.3848299E-1,-1.7126484E-1,9.6396804E-2,3.0269197E-1,7.6354645E-2,3.8606178E-2,3.9013088E-1,1.9535774E-1,-2.1142137E-1,-1.3694067E-1,1.8356708E-1,3.2557514E-1,4.1522212E-2,-9.4906345E-2,1.4369537E-1],"categories":[],"categories_nodes":[],"categories_segments":[],"categories_sizes":[],"default_left":[1,1,1,1,0,0,0,1,1,1,0,1,0,0,0,0,1,0,0],"id":37,"left_children":[1,3,5,7,-1,-1,-1,9,11,13,-1,15,-1,-1,-1,-1,17,-1,-1],"loss_changes":[1.7492297E-1,2.0578897E-1,8.1805006E-2,1.3694847E-1,0E0,0E0,0E0,1.9789928E-1,2.4605125E-1,1.1175709E-1,0E0,8.162144E-2,0E0,0E0,0E0,0E0,5.9963915E-2,0E0,0E0],"parents":[2147483647,0,0,1,1,2,2,3,3,7,7,8,8,9,9,11,11,16,16],"right_children":[2,4,6,8,-1,-1,-1,10,12,14,-1,16,-1,-1,-1,-1,18,-1,-1],"split_conditions":[7.25E1,8.42E1,9.28E2,-7.45E2,-4.15449E-2,-5.1379453E-2,2.8919043E-2,8.815E2,5.42E0,6.305E1,1.1703927E-1,5.9325E1,-6.342641E-2,-4.1082203E-2,5.5070125E-2,9.7672544E-2,8.98E2,-2.8471904E-2,4.3108612E-2],"split_indices":[3,2,6,0,0,0,0,6,7,2,0,1,0,0,0,0,6,0,0],"split_type":[0,0,0,0,0,0,0,0,0,0,0,0,0,0,0,0,0,0,0],"sum_hessian":[1.701024E1,1.4248458E1,2.7617826E0,1.3201238E1,1.0472201E0,1.5715536E0,1.1902292E0,8.222525E0,4.9787135E0,2.4038525E0,5.8186717E0,3.749388E0,1.2293258E0,1.1122503E0,1.2916021E0,1.4259646E0,2.3234234E0,1.0253836E0,1.2980397E0],"tree_param":{"num_deleted":"0","num_feature":"8","num_nodes":"19","size_leaf_vector":"0"}},{"base_weights":[-2.529223E-1,-3.9360037E-1,6.74267E-2,-2.6390293E-1,3.2081133E-1],"categories":[],"categories_nodes":[],"categories_segments":[],"categories_sizes":[],"default_left":[1,0,1,0,0],"id":38,"left_children":[1,-1,3,-1,-1],"loss_changes":[4.1696262E-1,0E0,3.7827384E-1,0E0,0E0],"parents":[2147483647,0,0,2,2],"right_children":[2,-1,4,-1,-1],"split_conditions":[5.09E0,-1.1808012E-1,7.53E1,-7.917088E-2,9.6243404E-2],"split_indices":[7,0,2,0,0],"split_type":[0,0,0,0,0],"sum_hessian":[7.6633554E0,5.166067E0,2.4972882E0,1.0642055E0,1.4330827E0],"tree_param":{"num_deleted":"0","num_feature":"8","num_nodes":"5","size_leaf_vector":"0"}},{"base_weights":[-3.0262511E-2,4.710478E-2,-3.3794636E-1,1.3486716E-1,-1.1324965E-1,2.1263541E-1,-1.0820376E-1,1.35775E-1,-3.460553E-1,8.6518735E-2,3.7421915E-1,1.9220677E-1,-1.4028919E-1,2.6228708E-1,3.148955E-2],"categories":[],"categories_nodes":[],"categories_segments":[],"categories_sizes":[],"default_left":[1,1,0,1,1,1,0,0,0,1,0,1,0,0,0],"id":39,"left_children":[1,3,-1,5,7,9,-1,-1,-1,11,-1,13,-1,-1,-1],"loss_changes":[3.3116218E-1,1.7654732E-1,0E0,1.716381E-1,3.1349528E-1,9.5886886E-2,0E0,0E0,0E0,1.428815E-1,0E0,3.364587E-2,0E0,0E0,0E0],"parents":[2147483647,0,0,1,1,3,3,4,4,5,5,9,9,11,11],"right_children":[2,4,-1,6,8,10,-1,-1,-1,12,-1,14,-1,-1,-1],"split_conditions":[3.81E2,6.085E1,-1.0138391E-1,9.295E2,4.295E0,9.215E2,-3.246113E-2,4.0732503E-2,-1.0381659E-1,8.83E2,1.1226575E-1,-7.485E2,-4.2086758E-2,7.8686126E-2,9.446866E-3],"split_indices":[5,2,0,6,7,6,0,0,0,6,0,0,0,0,0],"split_type":[0,0,0,0,0,0,0,0,0,0,0,0,0,0,0],"sum_hessian":[1.224292E1,1.0459722E1,1.7831982E0,6.862695E0,3.5970266E0,5.2941074E0,1.5685877E0,1.9393523E0,1.6576743E0,3.8357406E0,1.4583671E0,2.720567E0,1.1151736E0,1.4544007E0,1.2661662E0],"tree_param":{"num_deleted":"0","num_feature":"8","num_nodes":"15","size_leaf_vector":"0"}},{"base_weights":[1.3284418E-1,1.7178082E-1,-5.5164054E-2,2.0587534E-1,-8.754768E-2,5.8842186E-2,-1.7136724E-1,-4.4481186E-3,2.6624987E-1,9.765474E-2,-1.3220525E-1,3.4770086E-1,3.3303834E-2,1.5971914E-1,4.131512E-1,1.6004257E-1,-1.3380235E-1,-7.683188E-2,3.0030942E-1],"categories":[],"categories_nodes":[],"categories_segments":[],"categories_sizes":[],"default_left":[1,1,1,1,0,0,0,1,1,0,0,1,1,1,0,0,0,0,0],"id":40,"left_children":[1,3,5,7,-1,-1,-1,9,11,-1,-1,13,15,17,-1,-1,-1,-1,-1],"loss_changes":[1.3015431E-1,1.4092234E-1,5.758084E-2,1.6096747E-1,0E0,0E0,0E0,6.2348954E-2,1.7423213E-1,0E0,0E0,2.1982849E-2,9.856943E-2,1.3869978E-1,0E0,0E0,0E0,0E0,0E0],"parents":[2147483647,0,0,1,1,2,2,3,3,7,7,8,8,11,11,12,12,13,13],"right_children":[2,4,6,8,-1,-1,-1,10,12,-1,-1,14,16,18,-1,-1,-1,-1,-1],"split_conditions":[7.25E1,8.105E1,3.645E2,2.835E2,-2.6264306E-2,1.7652657E-2,-5.1410176E-2,2.58E2,7.17E1,2.9296422E-2,-3.9661575E-2,8.86E2,-7.52E2,4.2349997E0,1.2394536E-1,4.8012774E-2,-4.0140707E-2,-2.3049563E-2,9.009283E-2],"split_indices":[3,2,5,5,0,0,0,5,2,0,0,6,0,7,0,0,0,0,0],"split_type":[0,0,0,0,0,0,0,0,0,0,0,0,0,0,0,0,0,0,0],"sum_hessian":[1.5485169E1,1.2899902E1,2.5852673E0,1.1583159E1,1.3167427E0,1.5541384E0,1.031129E0,2.790025E0,8.793135E0,1.6816671E0,1.1083579E0,6.150092E0,2.643042E0,2.4767785E0,3.6733136E0,1.5271058E0,1.1159362E0,1.0923476E0,1.3844309E0],"tree_param":{"num_deleted":"0","num_feature":"8","num_nodes":"19","size_leaf_vector":"0"}},{"base_weights":[-2.3188856E-1,-4.0607494E-1,3.6202613E-2,-2.735089E-1,2.4274607E-1],"categories":[],"categories_nodes":[],"categories_segments":[],"categories_sizes":[],"default_left":[1,0,1,0,0],"id":41,"left_children":[1,-1,3,-1,-1],"loss_changes":[3.7500983E-1,0E0,3.1951252E-1,0E0,0E0],"parents":[2147483647,0,0,2,2],"right_children":[2,-1,4,-1,-1],"split_conditions":[3.87E2,-1.21822484E-1,4.6099997E0,-8.205268E-2,7.282382E-2],"split_indices":[5,0,7,0,0],"split_type":[0,0,0,0,0],"sum_hessian":[6.7157516E0,3.7588387E0,2.956913E0,1.0532888E0,1.9036243E0],"tree_param":{"num_deleted":"0","num_feature":"8","num_nodes":"5","size_leaf_vector":"0"}},{"base_weights":[-2.1935364E-2,5.020658E-2,-3.183959E-1,1.3351971E-1,-1.0252195E-1,2.0423654E-1,-9.190583E-2,-3.298758E-1,1.2981747E-1,8.190876E-2,3.5606408E-1,1.7449133E-1,-1.21582545E-1,2.4051079E-1,2.6738336E-2],"categories":[],"categories_nodes":[],"categories_segments":[],"categories_sizes":[],"default_left":[1,1,0,1,1,1,0,0,0,1,0,1,0,0,0],"id":42,"left_children":[1,3,-1,5,7,9,-1,-1,-1,11,-1,13,-1,-1,-1],"loss_changes":[2.7875713E-1,1.5041766E-1,0E0,1.3653134E-1,2.7304798E-1,8.103585E-2,0E0,0E0,0E0,1.07590206E-1,0E0,2.8312288E-2,0E0,0E0,0E0],"parents":[2147483647,0,0,1,1,3,3,4,4,5,5,9,9,11,11],"right_children":[2,4,-1,6,8,10,-1,-1,-1,12,-1,14,-1,-1,-1],"split_conditions":[3.81E2,6.085E1,-9.5518775E-2,9.295E2,3.08E2,9.215E2,-2.757175E-2,-9.896275E-2,3.8945243E-2,8.83E2,1.0681923E-1,-7.485E2,-3.6474764E-2,7.215324E-2,8.021501E-3],"split_indices":[5,2,0,6,5,6,0,0,0,6,0,0,0,0,0],"split_type":[0,0,0,0,0,0,0,0,0,0,0,0,0,0,0],"sum_hessian":[1.1286369E1,9.745504E0,1.5408648E0,6.3871155E0,3.358389E0,4.933465E0,1.4536507E0,1.485229E0,1.87316E0,3.5847275E0,1.3487374E0,2.5617285E0,1.0229989E0,1.3366795E0,1.225049E0],"tree_param":{"num_deleted":"0","num_feature":"8","num_nodes":"15","size_leaf_vector":"0"}},{"base_weights":[1.1709373E-1,1.5450741E-1,-5.4889984E-2,1.8813382E-1,-8.6030215E-2,-1.412645E-1,6.847937E-2,-8.584857E-3,2.4619825E-1,8.31333E-2,-1.2031749E-1,3.2582662E-1,3.0571267E-2,1.4368705E-1,3.9393464E-1,-1.2570196E-1,1.5428884E-1,-7.123395E-2,2.7626973E-1],"categories":[],"categories_nodes":[],"categories_segments":[],"categories_sizes":[],"default_left":[1,1,1,1,0,0,0,1,1,0,0,1,1,1,0,0,0,0,0],"id":43,"left_children":[1,3,5,7,-1,-1,-1,9,11,-1,-1,13,15,17,-1,-1,-1,-1,-1],"loss_changes":[1.064039E-1,1.19404286E-1,4.6511084E-2,1.3358429E-1,0E0,0E0,0E0,4.6786178E-2,1.4320534E-1,0E0,0E0,2.2928655E-2,8.724341E-2,1.14255965E-1,0E0,0E0,0E0,0E0,0E0],"parents":[2147483647,0,0,1,1,2,2,3,3,7,7,8,8,11,11,12,12,13,13],"right_children":[2,4,6,8,-1,-1,-1,10,12,-1,-1,14,16,18,-1,-1,-1,-1,-1],"split_conditions":[7.25E1,8.105E1,9.28E2,2.835E2,-2.5809066E-2,-4.237935E-2,2.054381E-2,2.58E2,7.17E1,2.4939992E-2,-3.6095247E-2,8.86E2,7.475E1,4.2349997E0,1.18180394E-1,-3.7710592E-2,4.6286654E-2,-2.1370186E-2,8.288092E-2],"split_indices":[3,2,6,5,0,0,0,5,2,0,0,6,2,7,0,0,0,0,0],"split_type":[0,0,0,0,0,0,0,0,0,0,0,0,0,0,0,0,0,0,0],"sum_hessian":[1.421832E1,1.1761348E1,2.4569716E0,1.0509951E1,1.2513971E0,1.3598484E0,1.0971231E0,2.5893939E0,7.920557E0,1.562634E0,1.02676E0,5.411201E0,2.509356E0,2.3190682E0,3.0921328E0,1.1017042E0,1.4076517E0,1.0613326E0,1.2577355E0],"tree_param":{"num_deleted":"0","num_feature":"8","num_nodes":"19","size_leaf_vector":"0"}},{"base_weights":[-2.1828172E-1,-3.9009067E-1,3.2696754E-2,-1.9350153E-1,2.538016E-1],"categories":[],"categories_nodes":[],"categories_segments":[],"categories_sizes":[],"default_left":[1,0,1,0,0],"id":44,"left_children":[1,-1,3,-1,-1],"loss_changes":[3.1153342E-1,0E0,2.3608133E-1,0E0,0E0],"parents":[2147483647,0,0,2,2],"right_children":[2,-1,4,-1,-1],"split_conditions":[3.87E2,-1.1702721E-1,4.9700003E0,-5.805046E-2,7.6140486E-2],"split_indices":[5,0,7,0,0],"split_type":[0,0,0,0,0],"sum_hessian":[5.9289494E0,3.1905546E0,2.7383947E0,1.4153168E0,1.3230779E0],"tree_param":{"num_deleted":"0","num_feature":"8","num_nodes":"5","size_leaf_vector":"0"}},{"base_weights":[-1.673945E-2,5.031116E-2,-2.9916617E-1,1.3024144E-1,-9.704723E-2,1.9237542E-1,-7.224929E-2,1.1789815E-1,-3.0997485E-1,2.676409E-1,1.5746538E-2,9.979462E-2,3.5064945E-1],"categories":[],"categories_nodes":[],"categories_segments":[],"categories_sizes":[],"default_left":[1,1,0,1,1,1,0,0,0,1,0,0,0],"id":45,"left_children":[1,3,-1,5,7,9,-1,-1,-1,11,-1,-1,-1],"loss_changes":[2.3182933E-1,1.3168547E-1,0E0,1.0171514E-1,2.2544682E-1,7.0417464E-2,0E0,0E0,0E0,1.8982112E-2,0E0,0E0,0E0],"parents":[2147483647,0,0,1,1,3,3,4,4,5,5,9,9],"right_children":[2,4,-1,6,8,10,-1,-1,-1,12,-1,-1,-1],"split_conditions":[3.81E2,6.085E1,-8.974986E-2,9.295E2,4.295E0,-7.35E2,-2.167479E-2,3.536945E-2,-9.2992455E-2,9.185E2,4.7239615E-3,2.9938387E-2,1.0519484E-1],"split_indices":[5,2,0,6,7,0,0,0,0,6,0,0,0],"split_type":[0,0,0,0,0,0,0,0,0,0,0,0,0],"sum_hessian":[1.0447393E1,9.107139E0,1.3402545E0,5.979754E0,3.127385E0,4.6139307E0,1.3658234E0,1.7784157E0,1.3489692E0,2.8739882E0,1.7399426E0,1.6797316E0,1.1942565E0],"tree_param":{"num_deleted":"0","num_feature":"8","num_nodes":"13","size_leaf_vector":"0"}},{"base_weights":[1.03051916E-1,2.3522383E-1,4.808923E-2,-4.218847E-2,3.4761944E-1,-1.8565544E-1,1.0317094E-1,2.1897615E-1,-6.459944E-2,-7.938243E-2,3.000332E-1,1.4415473E-1,-1.9031157E-1,1.1058729E-1,3.6927214E-1,-2.824539E-1,5.839067E-3],"categories":[],"categories_nodes":[],"categories_segments":[],"categories_sizes":[],"default_left":[1,1,1,0,0,0,1,1,1,0,1,0,1,0,0,0,0],"id":46,"left_children":[1,3,5,-1,-1,-1,7,9,11,-1,13,-1,15,-1,-1,-1,-1],"loss_changes":[9.1486126E-2,1.3624135E-1,1.6401795E-1,0E0,0E0,0E0,2.0354688E-1,1.688076E-1,1.5217367E-1,0E0,2.3747414E-2,0E0,6.305854E-2,0E0,0E0,0E0,0E0],"parents":[2147483647,0,0,1,1,2,2,6,6,7,7,8,8,10,10,12,12],"right_children":[2,4,6,-1,-1,-1,8,10,12,-1,14,-1,16,-1,-1,-1,-1],"split_conditions":[4.0699997E0,3.065E2,4.21E0,-1.2656542E-2,1.04285836E-1,-5.5696636E-2,3.595E2,4.0295E1,9.835E2,-2.3814728E-2,8.775E2,4.324642E-2,1.028E3,3.3176187E-2,1.1078165E-1,-8.473617E-2,1.7517202E-3],"split_indices":[7,5,7,0,0,0,5,1,6,0,6,0,6,0,0,0,0],"split_type":[0,0,0,0,0,0,0,0,0,0,0,0,0,0,0,0,0],"sum_hessian":[1.3150669E1,2.8991694E0,1.02515E1,1.0160415E0,1.8831279E0,1.5029665E0,8.748533E0,4.9952784E0,3.7532554E0,1.0715878E0,3.9236903E0,1.355554E0,2.3977013E0,1.7453606E0,2.1783297E0,1.3320041E0,1.0656973E0],"tree_param":{"num_deleted":"0","num_feature":"8","num_nodes":"17","size_leaf_vector":"0"}},{"base_weights":[-2.0083259E-1,-3.7410784E-1,3.6579553E-2,-1.7600802E-1,2.3771653E-1],"categories":[],"categories_nodes":[],"categories_segments":[],"categories_sizes":[],"default_left":[1,0,1,0,0],"id":47,"left_children":[1,-1,3,-1,-1],"loss_changes":[2.7313563E-1,0E0,1.9457196E-1,0E0,0E0],"parents":[2147483647,0,0,2,2],"right_children":[2,-1,4,-1,-1],"split_conditions":[3.87E2,-1.1223236E-1,4.9700003E0,-5.2802406E-2,7.131496E-2],"split_indices":[5,0,7,0,0],"split_type":[0,0,0,0,0],"sum_hessian":[5.3068967E0,2.7349904E0,2.5719063E0,1.3111005E0,1.260806E0],"tree_param":{"num_deleted":"0","num_feature":"8","num_nodes":"5","size_leaf_vector":"0"}},{"base_weights":[-1.1869663E-2,5.0809447E-2,-2.81272E-1,1.2505157E-1,-9.1319464E-2,1.8285653E-1,-6.601577E-2,-2.9358178E-1,1.1010794E-1,2.529875E-1,1.819015E-2,9.50275E-2,3.3000916E-1],"categories":[],"categories_nodes":[],"categories_segments":[],"categories_sizes":[],"default_left":[1,1,0,1,1,1,0,0,0,1,0,0,0],"id":48,"left_children":[1,3,-1,5,7,9,-1,-1,-1,11,-1,-1,-1],"loss_changes":[1.9579451E-1,1.1237024E-1,0E0,8.614105E-2,1.896119E-1,5.79198E-2,0E0,0E0,0E0,1.3891757E-2,0E0,0E0,0E0],"parents":[2147483647,0,0,1,1,3,3,4,4,5,5,9,9],"right_children":[2,4,-1,6,8,10,-1,-1,-1,12,-1,-1,-1],"split_conditions":[3.81E2,6.085E1,-8.43816E-2,9.295E2,3.08E2,-7.35E2,-1.9804733E-2,-8.8074535E-2,3.3032384E-2,9.185E2,5.457045E-3,2.8508252E-2,9.9002756E-2],"split_indices":[5,2,0,6,5,0,0,0,0,6,0,0,0],"split_type":[0,0,0,0,0,0,0,0,0,0,0,0,0],"sum_hessian":[9.748806E0,8.567006E0,1.1817993E0,5.706386E0,2.8606203E0,4.41397E0,1.2924163E0,1.1990718E0,1.6615485E0,2.7194145E0,1.6945555E0,1.6235435E0,1.0958709E0],"tree_param":{"num_deleted":"0","num_feature":"8","num_nodes":"13","size_leaf_vector":"0"}},{"base_weights":[9.159984E-2,2.1619992E-1,3.2057825E-2,-2.427705E-2,3.2234615E-1,1.3506009E-1,-7.768291E-2,-1.5686904E-1,2.7860782E-1,6.012774E-2,-2.35029E-1,-6.687179E-2,1.5086846E-1],"categories":[],"categories_nodes":[],"categories_segments":[],"categories_sizes":[],"default_left":[1,1,1,0,0,1,1,0,0,1,0,0,0],"id":49,"left_children":[1,3,5,-1,-1,7,9,-1,-1,11,-1,-1,-1],"loss_changes":[9.1154926E-2,1.12503946E-1,1.2488496E-1,0E0,0E0,2.7776867E-1,1.3414453E-1,0E0,0E0,5.3266622E-2,0E0,0E0,0E0],"parents":[2147483647,0,0,1,1,2,2,5,5,6,6,9,9],"right_children":[2,4,6,-1,-1,8,10,-1,-1,12,-1,-1,-1],"split_conditions":[4.115E0,-1.1155E3,-7.66E2,-7.2831153E-3,9.670385E-2,4.3100004E0,3.71E2,-4.7060713E-2,8.358235E-2,-6.805E2,-7.05087E-2,-2.0061538E-2,4.526054E-2],"split_indices":[7,0,0,0,0,7,5,0,0,0,0,0,0],"split_type":[0,0,0,0,0,0,0,0,0,0,0,0,0],"sum_hessian":[1.22210045E1,3.1008947E0,9.12011E0,1.1857761E0,1.9151187E0,4.5854774E0,4.534632E0,1.4809365E0,3.1045408E0,2.7467606E0,1.7878712E0,1.2543018E0,1.4924589E0],"tree_param":{"num_deleted":"0","num_feature":"8","num_nodes":"13","size_leaf_vector":"0"}},{"base_weights":[-1.8789986E-1,-2.9842326E-1,1.2018556E-1,-3.631668E-1,-3.5616614E-2],"categories":[],"categories_nodes":[],"categories_segments":[],"categories_sizes":[],"default_left":[1,1,0,0,0],"id":50,"left_children":[1,3,-1,-1,-1],"loss_changes":[2.3220713E-1,6.4157665E-2,0E0,0E0,0E0],"parents":[2147483647,0,0,1,1],"right_children":[2,4,-1,-1,-1],"split_conditions":[4.295E2,7.6399994E1,3.605567E-2,-1.0895005E-1,-1.0684985E-2],"split_indices":[5,2,0,0,0],"split_type":[0,0,0,0,0],"sum_hessian":[4.7661448E0,3.530843E0,1.235302E0,2.5265405E0,1.0043026E0],"tree_param":{"num_deleted":"0","num_feature":"8","num_nodes":"5","size_leaf_vector":"0"}},{"base_weights":[-7.559454E-3,5.1058352E-2,-2.6485506E-1,1.20284885E-1,-8.340401E-2,-5.42288E-2,1.796858E-1,-2.760928E-1,1.00979425E-1,1.1401399E-2,2.3083642E-1,6.9486E-2,2.6783514E-1],"categories":[],"categories_nodes":[],"categories_segments":[],"categories_sizes":[],"default_left":[1,1,0,1,1,0,1,0,0,0,1,0,0],"id":51,"left_children":[1,3,-1,5,7,-1,9,-1,-1,-1,11,-1,-1],"loss_changes":[1.6685739E-1,9.4911456E-2,0E0,7.638871E-2,1.5896663E-1,0E0,4.0650338E-2,0E0,0E0,0E0,4.09922E-3,0E0,0E0],"parents":[2147483647,0,0,1,1,3,3,4,4,6,6,10,10],"right_children":[2,4,-1,6,8,-1,10,-1,-1,-1,12,-1,-1],"split_conditions":[3.81E2,6.085E1,-7.945652E-2,4.1499996E0,3.08E2,-1.626864E-2,-8.205E2,-8.2827844E-2,3.0293828E-2,3.4204198E-3,8.765E2,2.08458E-2,8.035055E-2],"split_indices":[5,2,0,7,5,0,0,0,0,0,6,0,0],"split_type":[0,0,0,0,0,0,0,0,0,0,0,0,0],"sum_hessian":[9.166641E0,8.118597E0,1.0480442E0,5.428982E0,2.6896157E0,1.4007616E0,4.02822E0,1.0719731E0,1.6176428E0,1.2240435E0,2.8041766E0,1.0599272E0,1.7442493E0],"tree_param":{"num_deleted":"0","num_feature":"8","num_nodes":"13","size_leaf_vector":"0"}},{"base_weights":[8.0408424E-2,2.1919644E-1,2.5991742E-2,1.1611114E-2,3.030657E-1,-1.7893007E-1,7.8885995E-2,1.8657117E-1,-6.7220226E-2,2.4389477E-2,3.3795178E-1,1.2686853E-1,-1.8024552E-1,-1.137489E-1,1.2137934E-1,-2.5516626E-1,-9.7194845E-3],"categories":[],"categories_nodes":[],"categories_segments":[],"categories_sizes":[],"default_left":[1,1,1,0,0,0,1,1,1,1,0,0,1,0,0,0,0],"id":52,"left_children":[1,3,5,-1,-1,-1,7,9,11,13,-1,-1,15,-1,-1,-1,-1],"loss_changes":[8.823393E-2,5.512628E-2,1.2325296E-1,0E0,0E0,0E0,1.4937696E-1,1.2118474E-1,1.1994647E-1,6.2345825E-2,0E0,0E0,3.8528442E-2,0E0,0E0,0E0,0E0],"parents":[2147483647,0,0,1,1,2,2,6,6,7,7,8,8,9,9,12,12],"right_children":[2,4,6,-1,-1,-1,8,10,12,14,-1,-1,16,-1,-1,-1,-1],"split_conditions":[4.0699997E0,-1.1085E3,4.21E0,3.4833343E-3,9.091971E-2,-5.3679023E-2,3.595E2,2.9E2,9.835E2,4.8050003E0,1.0138554E-1,3.806056E-2,1.028E3,-3.4124672E-2,3.6413804E-2,-7.654988E-2,-2.9158455E-3],"split_indices":[7,0,7,0,0,0,5,5,6,7,0,0,6,0,0,0,0],"split_type":[0,0,0,0,0,0,0,0,0,0,0,0,0,0,0,0,0],"sum_hessian":[1.1437299E1,2.368473E0,9.068826E0,1.0091535E0,1.3593196E0,1.3717257E0,7.6971E0,4.2717338E0,3.4253664E0,2.6228528E0,1.648881E0,1.2155412E0,2.2098253E0,1.0106447E0,1.6122082E0,1.1904514E0,1.0193739E0],"tree_param":{"num_deleted":"0","num_feature":"8","num_nodes":"17","size_leaf_vector":"0"}},{"base_weights":[-1.7327373E-1,-3.0616707E-1,8.447506E-2],"categories":[],"categories_nodes":[],"categories_segments":[],"categories_sizes":[],"default_left":[1,0,0],"id":53,"left_children":[1,-1,-1],"loss_changes":[2.0836543E-1,0E0,0E0],"parents":[2147483647,0,0],"right_children":[2,-1,-1],"split_conditions":[5.09E0,-9.1850124E-2,2.534252E-2],"split_indices":[7,0,0],"split_type":[0,0,0],"sum_hessian":[4.3280425E0,2.7317317E0,1.5963111E0],"tree_param":{"num_deleted":"0","num_feature":"8","num_nodes":"3","size_leaf_vector":"0"}},{"base_weights":[-5.5527845E-3,8.5643515E-2,-1.6475448E-1,1.6469602E-1,-9.557452E-2,-2.8724477E-1,4.683916E-3,2.2800031E-1,1.2911667E-2,8.3277926E-2,2.9337007E-1],"categories":[],"categories_nodes":[],"categories_segments":[],"categories_sizes":[],"default_left":[1,1,1,1,0,0,0,1,0,0,0],"id":54,"left_children":[1,3,5,7,-1,-1,-1,9,-1,-1,-1],"loss_changes":[1.5441321E-1,1.131856E-1,8.149105E-2,4.609154E-2,0E0,0E0,0E0,9.070829E-3,0E0,0E0,0E0],"parents":[2147483647,0,0,1,1,2,2,3,3,7,7],"right_children":[2,4,6,8,-1,-1,-1,10,-1,-1,-1],"split_conditions":[9.285E2,6.085E1,1.0175E3,-7.35E2,-2.8672358E-2,-8.617343E-2,1.4051748E-3,9.185E2,3.8735003E-3,2.4983378E-2,8.801103E-2],"split_indices":[6,2,6,0,0,0,0,6,0,0,0],"split_type":[0,0,0,0,0,0,0,0,0,0,0],"sum_hessian":[8.663673E0,5.8020816E0,2.8615916E0,4.1032834E0,1.6987982E0,1.257352E0,1.6042396E0,2.54127E0,1.5620135E0,1.4982469E0,1.0430231E0],"tree_param":{"num_deleted":"0","num_feature":"8","num_nodes":"11","size_leaf_vector":"0"}},{"base_weights":[7.221565E-2,1.0911464E-1,-7.5242184E-2,2.6742685E-1,4.4974428E-2,-1.9061631E-1,1.1266919E-1,1.9959521E-1,-8.2690656E-2,-7.670932E-2,3.4433198E-1],"categories":[],"categories_nodes":[],"categories_segments":[],"categories_sizes":[],"default_left":[1,1,0,0,1,0,1,1,0,0,0],"id":55,"left_children":[1,3,-1,-1,5,-1,7,9,-1,-1,-1],"loss_changes":[7.24103E-2,8.794831E-2,0E0,0E0,1.5239729E-1,0E0,1.3546742E-1,2.3201095E-1,0E0,0E0,0E0],"parents":[2147483647,0,0,1,1,4,4,6,6,7,7],"right_children":[2,4,-1,-1,6,-1,8,10,-1,-1,-1],"split_conditions":[7.25E1,4.0699997E0,-2.2572655E-2,8.022806E-2,4.21E0,-5.7184894E-2,7.845E1,2.805E2,-2.4807198E-2,-2.3012798E-2,1.03299595E-1],"split_indices":[3,7,0,0,7,0,1,5,0,0,0],"split_type":[0,0,0,0,0,0,0,0,0,0,0],"sum_hessian":[1.0799254E1,8.845769E0,1.9534854E0,1.6366774E0,7.209091E0,1.2038037E0,6.0052876E0,4.141039E0,1.8642491E0,1.585089E0,2.5559497E0],"tree_param":{"num_deleted":"0","num_feature":"8","num_nodes":"11","size_leaf_vector":"0"}},{"base_weights":[-1.5933375E-1,-3.3159444E-1,4.66011E-2,-1.3486159E-1,2.0855914E-1],"categories":[],"categories_nodes":[],"categories_segments":[],"categories_sizes":[],"default_left":[1,0,1,0,0],"id":56,"left_children":[1,-1,3,-1,-1],"loss_changes":[1.9321723E-1,0E0,1.2097397E-1,0E0,0E0],"parents":[2147483647,0,0,2,2],"right_children":[2,-1,4,-1,-1],"split_conditions":[9.85E2,-9.9478334E-2,5.085E0,-4.0458478E-2,6.256775E-2],"split_indices":[6,0,7,0,0],"split_type":[0,0,0,0,0],"sum_hessian":[4.0110555E0,1.851837E0,2.1592183E0,1.0971942E0,1.0620241E0],"tree_param":{"num_deleted":"0","num_feature":"8","num_nodes":"5","size_leaf_vector":"0"}},{"base_weights":[-1.4955264E-3,8.293217E-2,-1.5076365E-1,-1.0631705E-1,1.465273E-1,-2.724963E-1,9.872374E-3,2.3327705E-1,-3.753358E-2,3.2185075E-1,2.9637818E-3],"categories":[],"categories_nodes":[],"categories_segments":[],"categories_sizes":[],"default_left":[1,1,1,0,1,0,0,1,0,0,0],"id":57,"left_children":[1,3,5,-1,7,-1,-1,9,-1,-1,-1],"loss_changes":[1.2832677E-1,9.399383E-2,7.455717E-2,0E0,9.3336865E-2,0E0,0E0,7.5318605E-2,0E0,0E0,0E0],"parents":[2147483647,0,0,1,1,2,2,4,4,7,7],"right_children":[2,4,6,-1,8,-1,-1,10,-1,-1,-1],"split_conditions":[9.285E2,8.65E2,1.0175E3,-3.1895116E-2,4.3100004E0,-8.1748895E-2,2.9617124E-3,8.865E2,-1.1260075E-2,9.6555226E-2,8.891346E-4],"split_indices":[6,6,6,0,7,0,0,6,0,0,0],"split_type":[0,0,0,0,0,0,0,0,0,0,0],"sum_hessian":[8.190626E0,5.5154405E0,2.675186E0,1.2182724E0,4.2971683E0,1.1257302E0,1.5494559E0,2.7389042E0,1.5582638E0,1.6910962E0,1.0478082E0],"tree_param":{"num_deleted":"0","num_feature":"8","num_nodes":"11","size_leaf_vector":"0"}},{"base_weights":[6.238726E-2,1.8280543E-1,7.517633E-3,-2.498865E-2,2.7940893E-1,-1.2281239E-1,7.16737E-2,1.6086789E-2,-2.0718983E-1,2.1659063E-1,-1.09179564E-1,1.9647412E-2,3.1690788E-1,-2.065435E-1,6.154906E-2],"categories":[],"categories_nodes":[],"categories_segments":[],"categories_sizes":[],"default_left":[1,1,1,0,0,1,1,0,0,1,1,0,0,0,0],"id":58,"left_children":[1,3,5,-1,-1,7,9,-1,-1,11,13,-1,-1,-1,-1],"loss_changes":[7.2423264E-2,7.630288E-2,8.1678934E-2,0E0,0E0,4.134832E-2,1.9327322E-1,0E0,0E0,7.13819E-2,7.162283E-2,0E0,0E0,0E0,0E0],"parents":[2147483647,0,0,1,1,2,2,5,5,6,6,9,9,10,10],"right_children":[2,4,6,-1,-1,8,10,-1,-1,12,14,-1,-1,-1,-1],"split_conditions":[4.115E0,-1.1155E3,4.3100004E0,-7.496595E-3,8.382268E-2,6.6005E1,3.695E2,4.8260367E-3,-6.215695E-2,5.2905E1,7.585E1,5.8942237E-3,9.507237E-2,-6.1963055E-2,1.8464718E-2],"split_indices":[7,0,7,0,0,1,5,0,0,1,2,0,0,0,0],"split_type":[0,0,0,0,0,0,0,0,0,0,0,0,0,0,0],"sum_hessian":[1.0169089E1,2.4533272E0,7.715762E0,1.0138544E0,1.4394728E0,2.2436392E0,5.4721227E0,1.15374E0,1.0898993E0,2.9281805E0,2.5439422E0,1.3917482E0,1.5364324E0,1.4864601E0,1.0574822E0],"tree_param":{"num_deleted":"0","num_feature":"8","num_nodes":"15","size_leaf_vector":"0"}},{"base_weights":[-1.4518431E-1,-3.181411E-1,5.5521328E-2,-1.15829386E-1,1.9738139E-1],"categories":[],"categories_nodes":[],"categories_segments":[],"categories_sizes":[],"default_left":[1,0,1,0,0],"id":59,"left_children":[1,-1,3,-1,-1],"loss_changes":[1.8098353E-1,0E0,9.6493974E-2,0E0,0E0],"parents":[2147483647,0,0,2,2],"right_children":[2,-1,4,-1,-1],"split_conditions":[3.87E2,-9.544233E-2,4.9700003E0,-3.474882E-2,5.921442E-2],"split_indices":[5,0,7,0,0],"split_type":[0,0,0,0,0],"sum_hessian":[3.7048085E0,1.6756848E0,2.0291238E0,1.0021439E0,1.0269798E0],"tree_param":{"num_deleted":"0","num_feature":"8","num_nodes":"5","size_leaf_vector":"0"}},{"base_weights":[-6.7934266E-4,8.93296E-2,-1.4085382E-1,1.5457031E-1,-8.919536E-2,5.884949E-2,-2.945349E-1,2.1203752E-1,9.4268555E-3,7.565832E-2,2.637061E-1],"categories":[],"categories_nodes":[],"categories_segments":[],"categories_sizes":[],"default_left":[1,1,1,1,0,0,0,1,0,0,0],"id":60,"left_children":[1,3,5,7,-1,-1,-1,9,-1,-1,-1],"loss_changes":[1.2233748E-1,8.261368E-2,1.3364045E-1,3.7151188E-2,0E0,0E0,0E0,3.4138113E-3,0E0,0E0,0E0],"parents":[2147483647,0,0,1,1,2,2,3,3,7,7],"right_children":[2,4,6,8,-1,-1,-1,10,-1,-1,-1],"split_conditions":[6.085E1,9.285E2,4.295E0,-7.35E2,-2.675861E-2,1.7654847E-2,-8.836047E-2,9.135E2,2.8280567E-3,2.2697497E-2,7.911183E-2],"split_indices":[2,6,7,0,0,0,0,6,0,0,0],"split_type":[0,0,0,0,0,0,0,0,0,0,0],"sum_hessian":[7.699012E0,4.909345E0,2.7896667E0,3.693692E0,1.2156533E0,1.4815328E0,1.308134E0,2.315876E0,1.3778161E0,1.3134158E0,1.0024601E0],"tree_param":{"num_deleted":"0","num_feature":"8","num_nodes":"11","size_leaf_vector":"0"}},{"base_weights":[5.6762576E-2,9.4230875E-2,-8.323795E-2,2.4068311E-1,3.4200784E-2,-1.707193E-1,9.565557E-2,1.7777964E-1,-8.057091E-2,-7.988928E-2,3.1990603E-1],"categories":[],"categories_nodes":[],"categories_segments":[],"categories_sizes":[],"default_left":[1,1,0,0,1,0,1,1,0,0,0],"id":61,"left_children":[1,3,-1,-1,5,-1,7,9,-1,-1,-1],"loss_changes":[6.3228294E-2,6.911854E-2,0E0,0E0,1.09596185E-1,0E0,1.0605398E-1,1.9531016E-1,0E0,0E0,0E0],"parents":[2147483647,0,0,1,1,4,4,6,6,7,7],"right_children":[2,4,-1,-1,6,-1,8,10,-1,-1,-1],"split_conditions":[7.25E1,4.0699997E0,-2.4971386E-2,7.220493E-2,4.21E0,-5.121579E-2,7.845E1,2.805E2,-2.4171272E-2,-2.3966786E-2,9.5971815E-2],"split_indices":[3,7,0,0,7,0,1,5,0,0,0],"split_type":[0,0,0,0,0,0,0,0,0,0,0],"sum_hessian":[9.558354E0,7.798239E0,1.7601154E0,1.3922548E0,6.4059844E0,1.0677204E0,5.338264E0,3.635333E0,1.702931E0,1.4480255E0,2.1873076E0],"tree_param":{"num_deleted":"0","num_feature":"8","num_nodes":"11","size_leaf_vector":"0"}},{"base_weights":[-1.3415225E-1,-3.0255088E-1,5.123251E-2],"categories":[],"categories_nodes":[],"categories_segments":[],"categories_sizes":[],"default_left":[1,0,0],"id":62,"left_children":[1,-1,-1],"loss_changes":[1.5359277E-1,0E0,0E0],"parents":[2147483647,0,0],"right_children":[2,-1,-1],"split_conditions":[9.85E2,-9.076527E-2,1.5369753E-2],"split_indices":[6,0,0],"split_type":[0,0,0],"sum_hessian":[3.4234064E0,1.4627063E0,1.9607E0],"tree_param":{"num_deleted":"0","num_feature":"8","num_nodes":"3","size_leaf_vector":"0"}},{"base_weights":[2.330951E-3,8.586139E-2,-1.3098188E-1,-8.1986696E-2,1.5559559E-1,5.8082115E-2,-2.8012994E-1,-1.1407934E-2,2.1159726E-1],"categories":[],"categories_nodes":[],"categories_segments":[],"categories_sizes":[],"default_left":[1,1,1,0,1,0,0,0,0],"id":63,"left_children":[1,3,5,-1,7,-1,-1,-1,-1],"loss_changes":[1.036521E-1,7.954016E-2,1.1757401E-1,0E0,4.3340772E-2,0E0,0E0,0E0,0E0],"parents":[2147483647,0,0,1,1,2,2,4,4],"right_children":[2,4,6,-1,8,-1,-1,-1,-1],"split_conditions":[6.085E1,4.1499996E0,4.295E0,-2.459601E-2,-8.205E2,1.7424636E-2,-8.403899E-2,-3.4223804E-3,6.3479185E-2],"split_indices":[2,7,7,0,0,0,0,0,0],"split_type":[0,0,0,0,0,0,0,0,0],"sum_hessian":[7.2981744E0,4.7056646E0,2.5925097E0,1.3296162E0,3.3760486E0,1.4125272E0,1.1799827E0,1.0477698E0,2.3282788E0],"tree_param":{"num_deleted":"0","num_feature":"8","num_nodes":"9","size_leaf_vector":"0"}},{"base_weights":[5.006178E-2,1.686409E-1,-3.798966E-3,3.2181884E-3,2.4681897E-1,9.3125485E-2,-9.486728E-2,-1.1290625E-1,2.3764433E-1,1.0310829E-1,-1.8084046E-1,-2.7318481E-2,-2.5888357E-1],"categories":[],"categories_nodes":[],"categories_segments":[],"categories_sizes":[],"default_left":[1,1,1,0,0,1,1,0,0,0,1,0,0],"id":64,"left_children":[1,3,5,-1,-1,7,9,-1,-1,-1,11,-1,-1],"loss_changes":[6.499337E-2,4.019121E-2,7.8625426E-2,0E0,0E0,1.559039E-1,9.646244E-2,0E0,0E0,0E0,3.547042E-2,0E0,0E0],"parents":[2147483647,0,0,1,1,2,2,5,5,6,6,10,10],"right_children":[2,4,6,-1,-1,8,10,-1,-1,-1,12,-1,-1],"split_conditions":[4.115E0,-9.74E2,-7.66E2,9.6545654E-4,7.4045695E-2,4.4049997E0,8.725E2,-3.3871874E-2,7.12933E-2,3.0932488E-2,5.0299997E0,-8.195545E-3,-7.7665076E-2],"split_indices":[7,0,0,0,0,7,6,0,0,0,7,0,0],"split_type":[0,0,0,0,0,0,0,0,0,0,0,0,0],"sum_hessian":[9.075954E0,2.1692054E0,6.9067483E0,1.0302947E0,1.1389109E0,3.3348558E0,3.5718925E0,1.4650158E0,1.8698401E0,1.0211415E0,2.550751E0,1.3146632E0,1.2360878E0],"tree_param":{"num_deleted":"0","num_feature":"8","num_nodes":"13","size_leaf_vector":"0"}},{"base_weights":[-1.23940855E-1,-2.9160604E-1,5.6258388E-2],"categories":[],"categories_nodes":[],"categories_segments":[],"categories_sizes":[],"default_left":[1,0,0],"id":65,"left_children":[1,-1,-1],"loss_changes":[1.4408323E-1,0E0,0E0],"parents":[2147483647,0,0],"right_children":[2,-1,-1],"split_conditions":[3.87E2,-8.748181E-2,1.6877517E-2],"split_indices":[5,0,0],"split_type":[0,0,0],"sum_hessian":[3.2259083E0,1.350812E0,1.8750963E0],"tree_param":{"num_deleted":"0","num_feature":"8","num_nodes":"3","size_leaf_vector":"0"}},{"base_weights":[-2.778172E-4,7.8327246E-2,-1.256137E-1,1.3921782E-1,-8.5828565E-2,4.9560815E-2,-2.6705995E-1,1.9571067E-1,7.56203E-4],"categories":[],"categories_nodes":[],"categories_segments":[],"categories_sizes":[],"default_left":[1,1,1,1,0,0,0,0,0],"id":66,"left_children":[1,3,5,7,-1,-1,-1,-1,-1],"loss_changes":[8.852117E-2,6.716548E-2,9.902298E-2,3.435406E-2,0E0,0E0,0E0,0E0,0E0],"parents":[2147483647,0,0,1,1,2,2,3,3],"right_children":[2,4,6,8,-1,-1,-1,-1,-1],"split_conditions":[6.085E1,9.285E2,4.295E0,-7.35E2,-2.5748571E-2,1.4868245E-2,-8.0117986E-2,5.8713205E-2,2.2686091E-4],"split_indices":[2,6,7,0,0,0,0,0,0],"split_type":[0,0,0,0,0,0,0,0,0],"sum_hessian":[6.9863896E0,4.5241237E0,2.4622664E0,3.4108484E0,1.113275E0,1.3901922E0,1.0720742E0,2.128818E0,1.2820306E0],"tree_param":{"num_deleted":"0","num_feature":"8","num_nodes":"9","size_leaf_vector":"0"}},{"base_weights":[4.756087E-2,9.063209E-2,-6.44777E-2,1.775575E-1,-2.5054079E-2,2.0357933E-2,-1.14757806E-1,-5.3169858E-2,2.8102008E-1,9.6349604E-2,-1.0393257E-1],"categories":[],"categories_nodes":[],"categories_segments":[],"categories_sizes":[],"default_left":[1,1,1,1,1,0,0,0,0,0,0],"id":67,"left_children":[1,3,5,7,9,-1,-1,-1,-1,-1,-1],"loss_changes":[5.2629538E-2,7.905194E-2,1.6312327E-2,1.1901204E-1,4.888505E-2,0E0,0E0,0E0,0E0,0E0,0E0],"parents":[2147483647,0,0,1,1,2,2,3,3,4,4],"right_children":[2,4,6,8,10,-1,-1,-1,-1,-1,-1],"split_conditions":[6.775E1,6.6005E1,2.125E1,4.0125E1,7.055E1,6.10738E-3,-3.4427345E-2,-1.5950957E-2,8.4306024E-2,2.8904883E-2,-3.117977E-2],"split_indices":[3,1,2,1,2,0,0,0,0,0,0],"split_type":[0,0,0,0,0,0,0,0,0,0,0],"sum_hessian":[8.695255E0,6.4187465E0,2.2765086E0,3.3595753E0,3.059171E0,1.0686045E0,1.2079041E0,1.1905897E0,2.1689856E0,1.1175817E0,1.9415894E0],"tree_param":{"num_deleted":"0","num_feature":"8","num_nodes":"11","size_leaf_vector":"0"}},{"base_weights":[-1.1409944E-1,-2.80723E-1,5.7521466E-2],"categories":[],"categories_nodes":[],"categories_segments":[],"categories_sizes":[],"default_left":[1,0,0],"id":68,"left_children":[1,-1,-1],"loss_changes":[1.3115816E-1,0E0,0E0],"parents":[2147483647,0,0],"right_children":[2,-1,-1],"split_conditions":[4.6099997E0,-8.421691E-2,1.725644E-2],"split_indices":[7,0,0],"split_type":[0,0,0],"sum_hessian":[3.0218983E0,1.2107184E0,1.8111799E0],"tree_param":{"num_deleted":"0","num_feature":"8","num_nodes":"3","size_leaf_vector":"0"}},{"base_weights":[1.0620174E-3,7.381222E-2,-1.1798906E-1,-7.6333396E-2,1.364552E-1,7.346725E-2,-2.3271771E-1,2.0887217E-1,7.941417E-3],"categories":[],"categories_nodes":[],"categories_segments":[],"categories_sizes":[],"default_left":[1,1,1,0,1,0,0,0,0],"id":69,"left_children":[1,3,5,-1,7,-1,-1,-1,-1],"loss_changes":[7.551746E-2,6.1235014E-2,8.981726E-2,0E0,3.7160702E-2,0E0,0E0,0E0,0E0],"parents":[2147483647,0,0,1,1,2,2,4,4],"right_children":[2,4,6,-1,8,-1,-1,-1,-1],"split_conditions":[6.085E1,4.1499996E0,-1.1075E3,-2.2900019E-2,4.49E0,2.2040175E-2,-6.9815315E-2,6.2661655E-2,2.3824254E-3],"split_indices":[2,7,0,0,7,0,0,0,0],"split_type":[0,0,0,0,0,0,0,0,0],"sum_hessian":[6.7137165E0,4.4030676E0,2.3106487E0,1.2318839E0,3.1711838E0,1.0005684E0,1.3100803E0,1.6283343E0,1.5428495E0],"tree_param":{"num_deleted":"0","num_feature":"8","num_nodes":"9","size_leaf_vector":"0"}},{"base_weights":[4.412752E-2,1.5592065E-1,-7.2423765E-3,9.903816E-2,-8.183094E-2,9.735323E-3,1.4680499E-1,-1.532736E-1,6.0098357E-2,-2.2877818E-1,-3.1770784E-2],"categories":[],"categories_nodes":[],"categories_segments":[],"categories_sizes":[],"default_left":[1,0,1,1,1,0,0,1,0,0,0],"id":70,"left_children":[1,-1,3,5,7,-1,-1,9,-1,-1,-1],"loss_changes":[5.4984435E-2,0E0,6.6615626E-2,1.348488E-2,5.8741406E-2,0E0,0E0,2.5123447E-2,0E0,0E0,0E0],"parents":[2147483647,0,0,2,2,3,3,4,4,7,7],"right_children":[2,-1,4,6,8,-1,-1,10,-1,-1,-1],"split_conditions":[4.115E0,4.6776198E-2,2.985E2,5.3545E1,3.92E2,2.9205969E-3,4.40415E-2,8.88E2,1.8029507E-2,-6.863346E-2,-9.531235E-3],"split_indices":[7,0,5,1,5,0,0,6,0,0,0],"split_type":[0,0,0,0,0,0,0,0,0,0,0],"sum_hessian":[8.377861E0,1.9968927E0,6.380968E0,2.4962673E0,3.8847005E0,1.2894241E0,1.2068434E0,2.5308318E0,1.3538687E0,1.0163466E0,1.5144852E0],"tree_param":{"num_deleted":"0","num_feature":"8","num_nodes":"11","size_leaf_vector":"0"}},{"base_weights":[-1.08980715E-1,-2.6918605E-1,5.5746417E-2],"categories":[],"categories_nodes":[],"categories_segments":[],"categories_sizes":[],"default_left":[1,0,0],"id":71,"left_children":[1,-1,-1],"loss_changes":[1.17198825E-1,0E0,0E0],"parents":[2147483647,0,0],"right_children":[2,-1,-1],"split_conditions":[3.87E2,-8.0755815E-2,1.6723925E-2],"split_indices":[5,0,0],"split_type":[0,0,0],"sum_hessian":[2.872377E0,1.1346958E0,1.7376812E0],"tree_param":{"num_deleted":"0","num_feature":"8","num_nodes":"3","size_leaf_vector":"0"}},{"base_weights":[2.1034756E-3,-6.53926E-2,1.1816837E-1,2.808388E-2,-1.8444718E-1,1.7003981E-2,1.584772E-1,1.16357066E-1,-5.2548353E-2],"categories":[],"categories_nodes":[],"categories_segments":[],"categories_sizes":[],"default_left":[1,1,1,1,0,0,0,0,0],"id":72,"left_children":[1,3,5,7,-1,-1,-1,-1,-1],"loss_changes":[6.624883E-2,6.491023E-2,9.959098E-3,3.3691175E-2,0E0,0E0,0E0,0E0,0E0],"parents":[2147483647,0,0,1,1,2,2,3,3],"right_children":[2,4,6,8,-1,-1,-1,-1,-1],"split_conditions":[6.775E1,3.345E2,2.895E2,4.21E0,-5.533416E-2,5.1011946E-3,4.7543164E-2,3.490712E-2,-1.5764507E-2],"split_indices":[3,5,5,7,0,0,0,0,0],"split_type":[0,0,0,0,0,0,0,0,0],"sum_hessian":[6.4702654E0,4.3671756E0,2.1030898E0,2.8744173E0,1.492758E0,1.0043308E0,1.098759E0,1.1606842E0,1.7137332E0],"tree_param":{"num_deleted":"0","num_feature":"8","num_nodes":"9","size_leaf_vector":"0"}},{"base_weights":[3.948262E-2,9.88497E-2,-4.4172052E-2,-2.3634844E-2,2.1437918E-1,1.0082944E-1,-1.4914314E-1,-1.2528588E-1,1.1867125E-1],"categories":[],"categories_nodes":[],"categories_segments":[],"categories_sizes":[],"default_left":[1,1,1,1,0,0,0,0,0],"id":73,"left_children":[1,3,5,7,-1,-1,-1,-1,-1],"loss_changes":[4.9629483E-2,8.4871784E-2,8.314097E-2,6.74957E-2,0E0,0E0,0E0,0E0,0E0],"parents":[2147483647,0,0,1,1,2,2,3,3],"right_children":[2,4,6,8,-1,-1,-1,-1,-1],"split_conditions":[-7.45E2,-9.655E2,4.375E0,4.3100004E0,6.4313754E-2,3.0248832E-2,-4.4742946E-2,-3.7585765E-2,3.5601377E-2],"split_indices":[0,0,7,7,0,0,0,0,0],"split_type":[0,0,0,0,0,0,0,0,0],"sum_hessian":[8.113984E0,4.6396976E0,3.4742868E0,2.6381493E0,2.0015483E0,1.475527E0,1.9987596E0,1.6086636E0,1.0294857E0],"tree_param":{"num_deleted":"0","num_feature":"8","num_nodes":"9","size_leaf_vector":"0"}},{"base_weights":[-1.0020967E-1,-2.6017898E-1,5.8187928E-2],"categories":[],"categories_nodes":[],"categories_segments":[],"categories_sizes":[],"default_left":[1,0,0],"id":74,"left_children":[1,-1,-1],"loss_changes":[1.1010176E-1,0E0,0E0],"parents":[2147483647,0,0],"right_children":[2,-1,-1],"split_conditions":[9.85E2,-7.80537E-2,1.7456379E-2],"split_indices":[6,0,0],"split_type":[0,0,0],"sum_hessian":[2.7477162E0,1.0473772E0,1.700339E0],"tree_param":{"num_deleted":"0","num_feature":"8","num_nodes":"3","size_leaf_vector":"0"}},{"base_weights":[3.9920886E-3,6.851678E-2,-1.11844E-1,1.29575E-1,-8.279146E-2,1.3610573E-2,2.4538924E-1,-6.0335737E-2,8.511784E-2],"categories":[],"categories_nodes":[],"categories_segments":[],"categories_sizes":[],"default_left":[1,1,0,1,0,1,0,0,0],"id":75,"left_children":[1,3,-1,5,-1,7,-1,-1,-1],"loss_changes":[6.213477E-2,5.969897E-2,0E0,5.261813E-2,0E0,2.1742422E-2,0E0,0E0,0E0],"parents":[2147483647,0,0,1,1,3,3,5,5],"right_children":[2,4,-1,6,-1,8,-1,-1,-1],"split_conditions":[9.285E2,4.42E0,-3.35532E-2,6.775E1,-2.483744E-2,6.4665E1,7.361677E-2,-1.8100722E-2,2.5535353E-2],"split_indices":[6,7,0,3,0,1,0,0,0],"split_type":[0,0,0,0,0,0,0,0,0],"sum_hessian":[6.287862E0,4.300717E0,1.987145E0,3.1665413E0,1.1341755E0,2.1406431E0,1.0258981E0,1.1291786E0,1.0114645E0],"tree_param":{"num_deleted":"0","num_feature":"8","num_nodes":"9","size_leaf_vector":"0"}},{"base_weights":[3.522296E-2,1.3712585E-1,-1.1785303E-2,7.90681E-2,-8.291935E-2,-9.972698E-3,1.2978798E-1,-1.5337633E-1,5.1817104E-2,-2.0093524E-1,-3.1950828E-2],"categories":[],"categories_nodes":[],"categories_segments":[],"categories_sizes":[],"default_left":[1,0,1,1,1,0,0,1,0,0,0],"id":76,"left_children":[1,-1,3,5,7,-1,-1,9,-1,-1,-1],"loss_changes":[4.402084E-2,0E0,5.1657584E-2,1.7446019E-2,4.973812E-2,0E0,0E0,1.1731222E-2,0E0,0E0,0E0],"parents":[2147483647,0,0,2,2,3,3,4,4,7,7],"right_children":[2,-1,4,6,8,-1,-1,10,-1,-1,-1],"split_conditions":[4.115E0,4.1137755E-2,3.085E2,4.45E0,3.92E2,-2.9918095E-3,3.8936395E-2,4.4049997E0,1.5545132E-2,-6.0280576E-2,-9.585248E-3],"split_indices":[7,0,5,7,5,0,0,7,0,0,0],"split_type":[0,0,0,0,0,0,0,0,0,0,0],"sum_hessian":[7.8522563E0,1.8736229E0,5.9786334E0,2.5764363E0,3.4021974E0,1.2265518E0,1.3498844E0,2.1431491E0,1.2590482E0,1.0694668E0,1.0736824E0],"tree_param":{"num_deleted":"0","num_feature":"8","num_nodes":"11","size_leaf_vector":"0"}},{"base_weights":[-9.436684E-2,-2.1200868E-1,9.045131E-2],"categories":[],"categories_nodes":[],"categories_segments":[],"categories_sizes":[],"default_left":[1,0,0],"id":77,"left_children":[1,-1,-1],"loss_changes":[9.771983E-2,0E0,0E0],"parents":[2147483647,0,0],"right_children":[2,-1,-1],"split_conditions":[5.09E0,-6.360261E-2,2.7135393E-2],"split_indices":[7,0,0],"split_type":[0,0,0],"sum_hessian":[2.6124604E0,1.5064456E0,1.1060147E0],"tree_param":{"num_deleted":"0","num_feature":"8","num_nodes":"3","size_leaf_vector":"0"}},{"base_weights":[6.4484426E-3,7.1948975E-2,-1.0360109E-1,1.24892294E-1,-7.0111185E-2,3.0823633E-2,-1.8884254E-1,1.8379577E-1,-1.29355285E-2],"categories":[],"categories_nodes":[],"categories_segments":[],"categories_sizes":[],"default_left":[1,1,1,1,0,0,0,0,0],"id":78,"left_children":[1,3,5,7,-1,-1,-1,-1,-1],"loss_changes":[5.850558E-2,4.6587292E-2,4.079668E-2,3.5045356E-2,0E0,0E0,0E0,0E0,0E0],"parents":[2147483647,0,0,1,1,2,2,3,3],"right_children":[2,4,6,8,-1,-1,-1,-1,-1],"split_conditions":[6.085E1,9.285E2,-9.595E2,-7.35E2,-2.1033356E-2,9.247091E-3,-5.6652762E-2,5.5138733E-2,-3.8806587E-3],"split_indices":[2,6,0,0,0,0,0,0,0],"split_type":[0,0,0,0,0,0,0,0,0],"sum_hessian":[6.0823307E0,4.029951E0,2.0523794E0,3.023861E0,1.0060904E0,1.0441552E0,1.0082241E0,1.8848258E0,1.139035E0],"tree_param":{"num_deleted":"0","num_feature":"8","num_nodes":"9","size_leaf_vector":"0"}},{"base_weights":[2.8968472E-2,8.690068E-2,-4.868966E-2,-2.4097972E-2,1.9451472E-1,9.138876E-2,-1.4631367E-1,7.987488E-2,-1.2660645E-1],"categories":[],"categories_nodes":[],"categories_segments":[],"categories_sizes":[],"default_left":[1,1,1,1,0,0,0,0,0],"id":79,"left_children":[1,3,5,7,-1,-1,-1,-1,-1],"loss_changes":[4.297303E-2,6.789078E-2,7.245029E-2,4.735639E-2,0E0,0E0,0E0,0E0,0E0],"parents":[2147483647,0,0,1,1,2,2,3,3],"right_children":[2,4,6,8,-1,-1,-1,-1,-1],"split_conditions":[-7.45E2,-9.655E2,4.375E0,6.557E1,5.835442E-2,2.741663E-2,-4.38941E-2,2.3962466E-2,-3.7981935E-2],"split_indices":[0,0,7,1,0,0,0,0,0],"split_type":[0,0,0,0,0,0,0,0,0],"sum_hessian":[7.6113954E0,4.2911925E0,3.3202033E0,2.494405E0,1.7967871E0,1.3898336E0,1.9303697E0,1.347973E0,1.146432E0],"tree_param":{"num_deleted":"0","num_feature":"8","num_nodes":"9","size_leaf_vector":"0"}},{"base_weights":[-8.382535E-2,-1.9552515E-1,8.5570335E-2],"categories":[],"categories_nodes":[],"categories_segments":[],"categories_sizes":[],"default_left":[1,0,0],"id":80,"left_children":[1,-1,-1],"loss_changes":[8.334914E-2,0E0,0E0],"parents":[2147483647,0,0],"right_children":[2,-1,-1],"split_conditions":[5.09E0,-5.865755E-2,2.5671102E-2],"split_indices":[7,0,0],"split_type":[0,0,0],"sum_hessian":[2.5207624E0,1.4261234E0,1.0946392E0],"tree_param":{"num_deleted":"0","num_feature":"8","num_nodes":"3","size_leaf_vector":"0"}},{"base_weights":[6.4477804E-3,6.770527E-2,-9.716805E-2,-3.9651863E-2,1.3696384E-1,2.0155379E-1,1.2267164E-2],"categories":[],"categories_nodes":[],"categories_segments":[],"categories_sizes":[],"default_left":[1,1,0,0,1,0,0],"id":81,"left_children":[1,3,-1,-1,5,-1,-1],"loss_changes":[5.0631322E-2,4.2244323E-2,0E0,0E0,2.3575228E-2,0E0,0E0],"parents":[2147483647,0,0,1,1,4,4],"right_children":[2,4,-1,-1,6,-1,-1],"split_conditions":[6.085E1,5.281E1,-2.9150417E-2,-1.189556E-2,6.014E1,6.046614E-2,3.6801493E-3],"split_indices":[2,1,0,0,1,0,0],"split_type":[0,0,0,0,0,0,0],"sum_hessian":[5.940417E0,3.9511046E0,1.989312E0,1.7170304E0,2.234074E0,1.0657094E0,1.1683649E0],"tree_param":{"num_deleted":"0","num_feature":"8","num_nodes":"7","size_leaf_vector":"0"}},{"base_weights":[2.663782E-2,8.7707706E-2,-4.6433605E-2,-1.8232694E-2,1.9865835E-1,6.6349134E-2,-1.8065968E-1,-1.2427942E-1,1.1046832E-1,-4.6421926E-2,1.4410527E-1],"categories":[],"categories_nodes":[],"categories_segments":[],"categories_sizes":[],"default_left":[1,1,1,1,0,1,0,0,0,0,0],"id":82,"left_children":[1,3,5,7,-1,9,-1,-1,-1,-1,-1],"loss_changes":[4.1573778E-2,6.1498825E-2,7.98029E-2,6.06079E-2,0E0,3.4448683E-2,0E0,0E0,0E0,0E0,0E0],"parents":[2147483647,0,0,1,1,2,2,3,3,5,5],"right_children":[2,4,6,8,-1,10,-1,-1,-1,-1,-1],"split_conditions":[-7.66E2,4.4049997E0,3.71E2,3.11E2,5.9597507E-2,-6.805E2,-5.4197907E-2,-3.7283827E-2,3.31405E-2,-1.3926579E-2,4.3231584E-2],"split_indices":[0,7,5,5,0,0,0,0,0,0,0],"split_type":[0,0,0,0,0,0,0,0,0,0,0],"sum_hessian":[7.4036975E0,3.9239402E0,3.4797575E0,2.4347785E0,1.4891617E0,2.165717E0,1.3140408E0,1.3537087E0,1.0810697E0,1.0483122E0,1.1174046E0],"tree_param":{"num_deleted":"0","num_feature":"8","num_nodes":"11","size_leaf_vector":"0"}},{"base_weights":[-7.884561E-2,-2.0074433E-1,6.8003364E-2],"categories":[],"categories_nodes":[],"categories_segments":[],"categories_sizes":[],"default_left":[1,0,0],"id":83,"left_children":[1,-1,-1],"loss_changes":[7.46344E-2,0E0,0E0],"parents":[2147483647,0,0],"right_children":[2,-1,-1],"split_conditions":[7.845E1,-6.02233E-2,2.040101E-2],"split_indices":[1,0,0],"split_type":[0,0,0],"sum_hessian":[2.4067438E0,1.114549E0,1.2921947E0],"tree_param":{"num_deleted":"0","num_feature":"8","num_nodes":"3","size_leaf_vector":"0"}},{"base_weights":[7.69467E-3,6.59443E-2,-9.846073E-2,-8.208406E-2,1.2793128E-1,1.7581068E-1,-6.342159E-4],"categories":[],"categories_nodes":[],"categories_segments":[],"categories_sizes":[],"default_left":[1,1,0,0,1,0,0],"id":84,"left_children":[1,3,-1,-1,5,-1,-1],"loss_changes":[4.8423905E-2,5.6172956E-2,0E0,0E0,2.411326E-2,0E0,0E0],"parents":[2147483647,0,0,1,1,4,4],"right_children":[2,4,-1,-1,6,-1,-1],"split_conditions":[9.285E2,8.705E2,-2.953822E-2,-2.462522E-2,5.755E1,5.2743208E-2,-1.9026478E-4],"split_indices":[6,6,0,0,3,0,0],"split_type":[0,0,0,0,0,0,0],"sum_hessian":[5.7810946E0,3.9774058E0,1.8036888E0,1.0782561E0,2.8991497E0,1.8446862E0,1.0544635E0],"tree_param":{"num_deleted":"0","num_feature":"8","num_nodes":"7","size_leaf_vector":"0"}},{"base_weights":[2.3051495E-2,1.3735424E-1,-1.9539412E-2,7.592133E-2,-8.8905156E-2,1.2914543E-1,-3.2211037E-3,-1.5118788E-1,4.5074392E-2,-1.9202374E-1,-3.060014E-2],"categories":[],"categories_nodes":[],"categories_segments":[],"categories_sizes":[],"default_left":[1,0,1,1,1,0,0,1,0,0,0],"id":85,"left_children":[1,-1,3,5,7,-1,-1,9,-1,-1,-1],"loss_changes":[4.2506345E-2,0E0,5.20086E-2,1.4804311E-2,4.369051E-2,0E0,0E0,1.0110296E-2,0E0,0E0,0E0],"parents":[2147483647,0,0,2,2,3,3,4,4,7,7],"right_children":[2,-1,4,6,8,-1,-1,10,-1,-1,-1],"split_conditions":[4.0699997E0,4.1206274E-2,3.085E2,4.62E1,3.905E2,3.874363E-2,-9.6633116E-4,4.4049997E0,1.3522319E-2,-5.7607125E-2,-9.180042E-3],"split_indices":[7,0,5,2,5,0,0,7,0,0,0],"split_type":[0,0,0,0,0,0,0,0,0,0,0],"sum_hessian":[7.1800365E0,1.345121E0,5.8349156E0,2.4157994E0,3.4191165E0,1.0666535E0,1.3491458E0,2.246399E0,1.1727176E0,1.2355825E0,1.0108163E0],"tree_param":{"num_deleted":"0","num_feature":"8","num_nodes":"11","size_leaf_vector":"0"}},{"base_weights":[-7.270519E-2,-1.8108359E-1,8.5772224E-2],"categories":[],"categories_nodes":[],"categories_segments":[],"categories_sizes":[],"default_left":[1,0,0],"id":86,"left_children":[1,-1,-1],"loss_changes":[7.240352E-2,0E0,0E0],"parents":[2147483647,0,0],"right_children":[2,-1,-1],"split_conditions":[5.09E0,-5.4325078E-2,2.5731668E-2],"split_indices":[7,0,0],"split_type":[0,0,0],"sum_hessian":[2.3111975E0,1.2878357E0,1.0233618E0],"tree_param":{"num_deleted":"0","num_feature":"8","num_nodes":"3","size_leaf_vector":"0"}},{"base_weights":[6.4130737E-3,-5.3795524E-2,1.0762551E-1,2.8712513E-2,-1.5733491E-1,9.666356E-2,-6.742268E-2],"categories":[],"categories_nodes":[],"categories_segments":[],"categories_sizes":[],"default_left":[1,1,0,1,0,0,0],"id":87,"left_children":[1,3,-1,5,-1,-1,-1],"loss_changes":[4.6254452E-2,4.57813E-2,0E0,2.9601796E-2,0E0,0E0,0E0],"parents":[2147483647,0,0,1,1,3,3],"right_children":[2,4,-1,6,-1,-1,-1],"split_conditions":[6.775E1,3.345E2,3.2287654E-2,6.085E1,-4.7200475E-2,2.8999068E-2,-2.0226805E-2],"split_indices":[3,5,0,2,0,0,0],"split_type":[0,0,0,0,0,0,0],"sum_hessian":[5.6402397E0,3.8302276E0,1.8100121E0,2.5337963E0,1.2964313E0,1.4812859E0,1.0525104E0],"tree_param":{"num_deleted":"0","num_feature":"8","num_nodes":"7","size_leaf_vector":"0"}},{"base_weights":[2.1058816E-2,1.0242308E-1,-2.8469551E-2,-4.7450416E-2,2.1290338E-1,3.628377E-2,-1.02386296E-1,-1.1468452E-1,1.8456571E-1],"categories":[],"categories_nodes":[],"categories_segments":[],"categories_sizes":[],"default_left":[1,1,1,0,0,1,0,0,0],"id":88,"left_children":[1,3,5,-1,-1,7,-1,-1,-1],"loss_changes":[3.5224356E-2,6.393533E-2,3.1313725E-2,0E0,0E0,1.0650014E-1,0E0,0E0,0E0],"parents":[2147483647,0,0,1,1,2,2,5,5],"right_children":[2,4,6,-1,-1,8,-1,-1,-1],"split_conditions":[5.281E1,4.0125E1,9.85E2,-1.4235125E-2,6.387102E-2,4.3100004E0,-3.071589E-2,-3.4405358E-2,5.5369716E-2],"split_indices":[1,1,6,0,0,7,0,0,0],"split_type":[0,0,0,0,0,0,0,0,0],"sum_hessian":[7.0172977E0,2.2511628E0,4.766135E0,1.197367E0,1.0537957E0,2.8119276E0,1.9542077E0,1.5056145E0,1.306313E0],"tree_param":{"num_deleted":"0","num_feature":"8","num_nodes":"9","size_leaf_vector":"0"}},{"base_weights":[-6.5053E-2,-1.6727173E-1,8.059559E-2],"categories":[],"categories_nodes":[],"categories_segments":[],"categories_sizes":[],"default_left":[1,0,0],"id":89,"left_children":[1,-1,-1],"loss_changes":[6.186655E-2,0E0,0E0],"parents":[2147483647,0,0],"right_children":[2,-1,-1],"split_conditions":[5.09E0,-5.0181523E-2,2.4178678E-2],"split_indices":[7,0,0],"split_type":[0,0,0],"sum_hessian":[2.249942E0,1.2348452E0,1.015097E0],"tree_param":{"num_deleted":"0","num_feature":"8","num_nodes":"3","size_leaf_vector":"0"}},{"base_weights":[5.7636034E-3,-5.2509654E-2,1.02915466E-1,4.7523465E-2,-1.22652374E-1],"categories":[],"categories_nodes":[],"categories_segments":[],"categories_sizes":[],"default_left":[1,1,0,0,0],"id":90,"left_children":[1,3,-1,-1,-1],"loss_changes":[4.2137265E-2,3.8932305E-2,0E0,0E0,0E0],"parents":[2147483647,0,0,1,1],"right_children":[2,4,-1,-1,-1],"split_conditions":[6.775E1,8.865E2,3.0874642E-2,1.425704E-2,-3.6795713E-2],"split_indices":[3,6,0,0,0],"split_type":[0,0,0,0,0],"sum_hessian":[5.488412E0,3.7178783E0,1.7705338E0,1.6653442E0,2.052534E0],"tree_param":{"num_deleted":"0","num_feature":"8","num_nodes":"5","size_leaf_vector":"0"}},{"base_weights":[2.108365E-2,1.2872033E-1,-2.000478E-2,7.427156E-2,-8.841174E-2,1.1638124E-1,4.15772E-3,2.703409E-2,-1.644219E-1],"categories":[],"categories_nodes":[],"categories_segments":[],"categories_sizes":[],"default_left":[1,0,1,1,1,0,0,0,0],"id":91,"left_children":[1,-1,3,5,7,-1,-1,-1,-1],"loss_changes":[3.7216965E-2,0E0,4.870777E-2,9.233041E-3,4.1679945E-2,0E0,0E0,0E0,0E0],"parents":[2147483647,0,0,2,2,3,3,4,4],"right_children":[2,-1,4,6,8,-1,-1,-1,-1],"split_conditions":[4.0699997E0,3.86161E-2,3.085E2,4.62E1,-7.66E2,3.4914374E-2,1.2473161E-3,8.110228E-3,-4.9326573E-2],"split_indices":[7,0,5,2,0,0,0,0,0],"split_type":[0,0,0,0,0,0,0,0,0],"sum_hessian":[6.8328977E0,1.2985107E0,5.534387E0,2.291114E0,3.2432728E0,1.0191393E0,1.2719749E0,1.5434239E0,1.699849E0],"tree_param":{"num_deleted":"0","num_feature":"8","num_nodes":"9","size_leaf_vector":"0"}},{"base_weights":[-6.37038E-2,-1.500872E-1,5.8154717E-2],"categories":[],"categories_nodes":[],"categories_segments":[],"categories_sizes":[],"default_left":[1,0,0],"id":92,"left_children":[1,-1,-1],"loss_changes":[4.2196788E-2,0E0,0E0],"parents":[2147483647,0,0],"right_children":[2,-1,-1],"split_conditions":[5.0299997E0,-4.502616E-2,1.7446415E-2],"split_indices":[7,0,0],"split_type":[0,0,0],"sum_hessian":[2.1794374E0,1.139801E0,1.0396364E0],"tree_param":{"num_deleted":"0","num_feature":"8","num_nodes":"3","size_leaf_vector":"0"}},{"base_weights":[7.3055085E-3,6.455502E-2,-8.741772E-2,-6.735808E-2,1.4272684E-1,1.9613642E-1,2.3877699E-2],"categories":[],"categories_nodes":[],"categories_segments":[],"categories_sizes":[],